{"learner":{"attributes":{"scikit_learn":"{\"_estimator_type\": \"classifier\"}"},"feature_names":["Gender","BMI","Infection at admission","Thyroid disease","Autoimmune disease","Diabetes","Hypertension","ASCVD","Chronic lung disease","Good syndrome","Disease duration (month)","Prednisolone daily dose before admission","Immunosuppressant at admission","Anti-MuSK","Anti-AChR","dSN","Thymoma","Thymic hyperplasia","Thymectomy","NLR","PLR","LMR","SII"],"feature_types":["int","float","int","int","int","int","int","int","int","int","int","float","int","int","int","int","int","int","int","float","float","float","float"],"gradient_booster":{"model":{"gbtree_model_param":{"num_parallel_tree":"1","num_trees":"100"},"iteration_indptr":[0,1,2,3,4,5,6,7,8,9,10,11,12,13,14,15,16,17,18,19,20,21,22,23,24,25,26,27,28,29,30,31,32,33,34,35,36,37,38,39,40,41,42,43,44,45,46,47,48,49,50,51,52,53,54,55,56,57,58,59,60,61,62,63,64,65,66,67,68,69,70,71,72,73,74,75,76,77,78,79,80,81,82,83,84,85,86,87,88,89,90,91,92,93,94,95,96,97,98,99,100],"tree_info":[0,0,0,0,0,0,0,0,0,0,0,0,0,0,0,0,0,0,0,0,0,0,0,0,0,0,0,0,0,0,0,0,0,0,0,0,0,0,0,0,0,0,0,0,0,0,0,0,0,0,0,0,0,0,0,0,0,0,0,0,0,0,0,0,0,0,0,0,0,0,0,0,0,0,0,0,0,0,0,0,0,0,0,0,0,0,0,0,0,0,0,0,0,0,0,0,0,0,0,0],"trees":[{"base_weights":[-3.8978764E-1,-6.922871E-1,5.6248266E-1,-1.3234196E-3,-7.0716333E-1,-4.3252777E-4,3.251661E-2,-7.2312754E-1,-1.3234196E-3,-3.7015177E-2,-1.3234196E-3],"categories":[],"categories_nodes":[],"categories_segments":[],"categories_sizes":[],"default_left":[0,0,0,0,0,0,0,0,0,0,0],"id":0,"left_children":[1,3,5,-1,7,-1,-1,9,-1,-1,-1],"loss_changes":[1.4270729E1,1.280098E-1,7.688041E-1,0E0,1.426096E-1,0E0,0E0,1.5887165E-1,0E0,0E0,0E0],"parents":[2147483647,0,0,1,1,2,2,4,4,7,7],"right_children":[2,4,6,-1,8,-1,-1,10,-1,-1,-1],"split_conditions":[1E0,1.726E1,2.3761157E2,-1.3234196E-3,1.2142858E1,-4.3252777E-4,3.251661E-2,2E0,-1.3234196E-3,-3.7015177E-2,-1.3234196E-3],"split_indices":[2,1,20,0,19,0,0,16,0,0,0],"split_type":[0,0,0,0,0,0,0,0,0,0,0],"sum_hessian":[2.602267E1,2.1821095E1,4.201577E0,1.084278E0,2.0736816E1,1.7619517E0,2.4396255E0,1.9652538E1,1.084278E0,1.856826E1,1.084278E0],"tree_param":{"num_deleted":"0","num_feature":"23","num_nodes":"11","size_leaf_vector":"1"}},{"base_weights":[-3.7734908E-1,-6.807821E-1,5.548027E-1,-6.958317E-1,-1.2323483E-3,3.1232422E-2,-1.4012655E-3,-1.3170649E-3,-3.5582375E-2],"categories":[],"categories_nodes":[],"categories_segments":[],"categories_sizes":[],"default_left":[0,0,0,0,0,0,0,0,0],"id":1,"left_children":[1,3,5,7,-1,-1,-1,-1,-1],"loss_changes":[1.384928E1,1.381216E-1,7.55352E-1,1.3321877E-1,0E0,0E0,0E0,0E0,0E0],"parents":[2147483647,0,0,1,1,2,2,3,3],"right_children":[2,4,6,8,-1,-1,-1,-1,-1],"split_conditions":[1E0,4.105263E2,2.48E1,1.726E1,-1.2323483E-3,3.1232422E-2,-1.4012655E-3,-1.3170649E-3,-3.5582375E-2],"split_indices":[2,20,1,1,0,0,0,0,0],"split_type":[0,0,0,0,0,0,0,0,0],"sum_hessian":[2.5610529E1,2.1355555E1,4.254975E0,2.028527E1,1.0702853E0,3.1588745E0,1.0961001E0,1.0833073E0,1.9201963E1],"tree_param":{"num_deleted":"0","num_feature":"23","num_nodes":"9","size_leaf_vector":"1"}},{"base_weights":[-3.6520177E-1,-6.691534E-1,5.4541224E-1,-6.840453E-1,-1.2264926E-3,-5.8844086E-4,3.171172E-2,-1.3107455E-3,-6.996999E-1,-3.575043E-2,-1.834744E-3],"categories":[],"categories_nodes":[],"categories_segments":[],"categories_sizes":[],"default_left":[0,0,0,0,0,0,0,0,0,0,0],"id":2,"left_children":[1,3,5,7,-1,-1,-1,-1,9,-1,-1],"loss_changes":[1.3394642E1,1.2871742E-1,7.8336E-1,1.2364483E-1,0E0,0E0,0E0,0E0,2.9292107E-2,0E0,0E0],"parents":[2147483647,0,0,1,1,2,2,3,3,8,8],"right_children":[2,4,6,8,-1,-1,-1,-1,10,-1,-1],"split_conditions":[1E0,4.105263E2,2.3761157E2,1.726E1,-1.2264926E-3,-5.8844086E-4,3.171172E-2,-1.3107455E-3,2E0,-3.575043E-2,-1.834744E-3],"split_indices":[2,20,20,1,0,0,0,0,16,0,0],"split_type":[0,0,0,0,0,0,0,0,0,0,0],"sum_hessian":[2.5208128E1,2.08877E1,4.3204293E0,1.9818314E1,1.0693862E0,1.7868068E0,2.5336223E0,1.0823416E0,1.8735971E1,1.7546461E1,1.1895103E0],"tree_param":{"num_deleted":"0","num_feature":"23","num_nodes":"11","size_leaf_vector":"1"}},{"base_weights":[-3.5360453E-1,-6.5825313E-1,5.3784084E-1,-6.7322844E-1,-1.1633883E-3,-5.8401615E-4,3.125492E-2,-6.894279E-1,-1.1393166E-3,-1.304461E-3,-3.530877E-2],"categories":[],"categories_nodes":[],"categories_segments":[],"categories_sizes":[],"default_left":[0,0,0,0,0,0,0,0,0,0,0],"id":3,"left_children":[1,3,5,7,-1,-1,-1,9,-1,-1,-1],"loss_changes":[1.2997658E1,1.3291264E-1,7.62198E-1,1.525917E-1,0E0,0E0,0E0,1.3054466E-1,0E0,0E0,0E0],"parents":[2147483647,0,0,1,1,2,2,3,3,7,7],"right_children":[2,4,6,8,-1,-1,-1,10,-1,-1,-1],"split_conditions":[1E0,1.2142858E1,2.3761157E2,2E0,-1.1633883E-3,-5.8401615E-4,3.125492E-2,1.726E1,-1.1393166E-3,-1.304461E-3,-3.530877E-2],"split_indices":[2,19,20,16,0,0,0,1,0,0,0],"split_type":[0,0,0,0,0,0,0,0,0,0,0],"sum_hessian":[2.4823582E1,2.045056E1,4.3730235E0,1.939098E1,1.059579E0,1.7861016E0,2.586922E0,1.8334969E1,1.0560111E0,1.0813807E0,1.7253588E1],"tree_param":{"num_deleted":"0","num_feature":"23","num_nodes":"11","size_leaf_vector":"1"}},{"base_weights":[-3.422365E-1,-6.4749235E-1,5.3030527E-1,-6.6241103E-1,-1.1360222E-3,3.0037194E-2,-1.5488126E-3,-1.2982105E-3,-6.7775905E-1,-3.4632362E-2,-1.8193331E-3],"categories":[],"categories_nodes":[],"categories_segments":[],"categories_sizes":[],"default_left":[0,0,0,0,0,0,0,0,0,0,0],"id":4,"left_children":[1,3,5,7,-1,-1,-1,-1,9,-1,-1],"loss_changes":[1.2608505E1,1.2932014E-1,7.5640154E-1,1.06972694E-1,0E0,0E0,0E0,0E0,1.4245987E-2,0E0,0E0],"parents":[2147483647,0,0,1,1,2,2,3,3,8,8],"right_children":[2,4,6,8,-1,-1,-1,-1,10,-1,-1],"split_conditions":[1E0,4.105263E2,2.48E1,1.726E1,-1.1360222E-3,3.0037194E-2,-1.5488126E-3,-1.2982105E-3,2E0,-3.4632362E-2,-1.8193331E-3],"split_indices":[2,20,1,1,0,0,0,0,16,0,0],"split_type":[0,0,0,0,0,0,0,0,0,0,0],"sum_hessian":[2.4446676E1,2.0021471E1,4.4252057E0,1.896614E1,1.0553302E0,3.3071022E0,1.1181036E0,1.0804248E0,1.7885717E1,1.6698635E1,1.1870805E0],"tree_param":{"num_deleted":"0","num_feature":"23","num_nodes":"11","size_leaf_vector":"1"}},{"base_weights":[-3.3174258E-1,-6.370738E-1,5.2116865E-1,-6.51997E-1,-1.0952281E-3,-7.3471473E-4,3.0462593E-2,-6.679324E-1,-1.1254201E-3,-1.2919953E-3,-3.4219146E-2],"categories":[],"categories_nodes":[],"categories_segments":[],"categories_sizes":[],"default_left":[0,0,0,0,0,0,0,0,0,0,0],"id":5,"left_children":[1,3,5,7,-1,-1,-1,9,-1,-1,-1],"loss_changes":[1.2199866E1,1.2899685E-1,7.7341104E-1,1.3614273E-1,0E0,0E0,0E0,1.1369038E-1,0E0,0E0,0E0],"parents":[2147483647,0,0,1,1,2,2,3,3,7,7],"right_children":[2,4,6,8,-1,-1,-1,10,-1,-1,-1],"split_conditions":[1E0,1.2142858E1,2.3761157E2,2E0,-1.0952281E-3,-7.3471473E-4,3.0462593E-2,1.726E1,-1.1254201E-3,-1.2919953E-3,-3.4219146E-2],"split_indices":[2,19,20,16,0,0,0,1,0,0,0],"split_type":[0,0,0,0,0,0,0,0,0,0,0],"sum_hessian":[2.409731E1,1.9608364E1,4.488946E0,1.8559475E1,1.048888E0,1.8099153E0,2.6790304E0,1.750561E1,1.0538656E0,1.079474E0,1.6426136E1],"tree_param":{"num_deleted":"0","num_feature":"23","num_nodes":"11","size_leaf_vector":"1"}},{"base_weights":[-3.2106313E-1,-6.2677616E-1,5.1375973E-1,-6.4172757E-1,-1.0505092E-3,-7.2914147E-4,3.001448E-2,-1.2858134E-3,-6.567639E-1,-3.3561192E-2,-1.8041298E-3],"categories":[],"categories_nodes":[],"categories_segments":[],"categories_sizes":[],"default_left":[0,0,0,0,0,0,0,0,0,0,0],"id":6,"left_children":[1,3,5,7,-1,-1,-1,-1,9,-1,-1],"loss_changes":[1.1831931E1,1.2966537E-1,7.522745E-1,9.194946E-2,0E0,0E0,0E0,0E0,8.7070465E-4,0E0,0E0],"parents":[2147483647,0,0,1,1,2,2,3,3,8,8],"right_children":[2,4,6,8,-1,-1,-1,-1,10,-1,-1],"split_conditions":[1E0,4.105263E2,2.3761157E2,1.726E1,-1.0505092E-3,-7.2914147E-4,3.001448E-2,-1.2858134E-3,2E0,-3.3561192E-2,-1.8041298E-3],"split_indices":[2,20,20,1,0,0,0,0,16,0,0],"split_type":[0,0,0,0,0,0,0,0,0,0,0],"sum_hessian":[2.3743181E1,1.9203094E1,4.540087E0,1.8161188E1,1.0419073E0,1.8090307E0,2.7310567E0,1.0785279E0,1.7082659E1,1.5897978E1,1.1846818E0],"tree_param":{"num_deleted":"0","num_feature":"23","num_nodes":"11","size_leaf_vector":"1"}},{"base_weights":[-3.1084418E-1,-6.1680233E-1,5.063973E-1,-6.3167536E-1,-1.0307705E-3,2.88672E-2,-1.6941399E-3,-6.473413E-1,-1.111682E-3,-1.2796664E-3,-3.3174336E-2],"categories":[],"categories_nodes":[],"categories_segments":[],"categories_sizes":[],"default_left":[0,0,0,0,0,0,0,0,0,0,0],"id":7,"left_children":[1,3,5,7,-1,-1,-1,9,-1,-1,-1],"loss_changes":[1.147587E1,1.2526894E-1,7.5489736E-1,1.2125015E-1,0E0,0E0,0E0,9.844494E-2,0E0,0E0,0E0],"parents":[2147483647,0,0,1,1,2,2,3,3,7,7],"right_children":[2,4,6,8,-1,-1,-1,10,-1,-1,-1],"split_conditions":[1E0,1.2142858E1,2.48E1,2E0,-1.0307705E-3,2.88672E-2,-1.6941399E-3,1.726E1,-1.111682E-3,-1.2796664E-3,-3.3174336E-2],"split_indices":[2,19,1,16,0,0,0,1,0,0,0],"split_type":[0,0,0,0,0,0,0,0,0,0,0],"sum_hessian":[2.340403E1,1.8813337E1,4.5906916E0,1.7774658E1,1.0386795E0,3.4514518E0,1.1392398E0,1.6722916E1,1.051743E0,1.0775869E0,1.56453285E1],"tree_param":{"num_deleted":"0","num_feature":"23","num_nodes":"11","size_leaf_vector":"1"}},{"base_weights":[-3.0122954E-1,-6.0693383E-1,4.9753433E-1,-6.21922E-1,-9.6962944E-4,-8.744916E-4,2.9238123E-2,-1.2735527E-3,-3.1832006E-2],"categories":[],"categories_nodes":[],"categories_segments":[],"categories_sizes":[],"default_left":[0,0,0,0,0,0,0,0,0],"id":8,"left_children":[1,3,5,7,-1,-1,-1,-1,-1],"loss_changes":[1.1098221E1,1.2976456E-1,7.605264E-1,7.839203E-2,0E0,0E0,0E0,0E0,0E0],"parents":[2147483647,0,0,1,1,2,2,3,3],"right_children":[2,4,6,8,-1,-1,-1,-1,-1],"split_conditions":[1E0,4.105263E2,2.3761157E2,1.726E1,-9.6962944E-4,-8.744916E-4,2.9238123E-2,-1.2735527E-3,-3.1832006E-2],"split_indices":[2,20,20,1,0,0,0,0,0],"split_type":[0,0,0,0,0,0,0,0,0],"sum_hessian":[2.3083519E1,1.8431116E1,4.6524024E0,1.7402025E1,1.0290902E0,1.8317952E0,2.8206072E0,1.0766505E0,1.6325375E1],"tree_param":{"num_deleted":"0","num_feature":"23","num_nodes":"9","size_leaf_vector":"1"}},{"base_weights":[-2.9104325E-1,-5.968438E-1,4.9031344E-1,-6.1173385E-1,-9.5344894E-4,2.8042395E-2,-1.7611558E-3,-6.277922E-1,-9.587585E-4,-1.2674726E-3,-3.2181364E-2],"categories":[],"categories_nodes":[],"categories_segments":[],"categories_sizes":[],"default_left":[0,0,0,0,0,0,0,0,0,0,0],"id":9,"left_children":[1,3,5,7,-1,-1,-1,9,-1,-1,-1],"loss_changes":[1.0751445E1,1.2464237E-1,7.4251914E-1,1.3673878E-1,0E0,0E0,0E0,8.48093E-2,0E0,0E0,0E0],"parents":[2147483647,0,0,1,1,2,2,3,3,7,7],"right_children":[2,4,6,8,-1,-1,-1,10,-1,-1,-1],"split_conditions":[1E0,1.2142858E1,2.48E1,2E0,-9.5344894E-4,2.8042395E-2,-1.7611558E-3,1.726E1,-9.587585E-4,-1.2674726E-3,-3.2181364E-2],"split_indices":[2,19,1,16,0,0,0,1,0,0,0],"split_type":[0,0,0,0,0,0,0,0,0,0,0],"sum_hessian":[2.2749073E1,1.8047318E1,4.7017565E0,1.7020908E1,1.0264091E0,3.5529857E0,1.1487706E0,1.59929E1,1.0280083E0,1.075719E0,1.4917181E1],"tree_param":{"num_deleted":"0","num_feature":"23","num_nodes":"11","size_leaf_vector":"1"}},{"base_weights":[-2.8205046E-1,-5.8735806E-1,4.816451E-1,-6.023738E-1,-8.93102E-4,-1.016306E-3,2.8474137E-2,-1.261426E-3,-6.167524E-1,-3.1555727E-2,-1.6215872E-3],"categories":[],"categories_nodes":[],"categories_segments":[],"categories_sizes":[],"default_left":[0,0,0,0,0,0,0,0,0,0,0],"id":10,"left_children":[1,3,5,7,-1,-1,-1,-1,9,-1,-1],"loss_changes":[1.0394863E1,1.2916756E-1,7.666347E-1,6.572628E-2,0E0,0E0,0E0,0E0,1.0119438E-2,0E0,0E0],"parents":[2147483647,0,0,1,1,2,2,3,3,8,8],"right_children":[2,4,6,8,-1,-1,-1,-1,10,-1,-1],"split_conditions":[1E0,4.105263E2,2.3761157E2,1.726E1,-8.93102E-4,-1.016306E-3,2.8474137E-2,-1.261426E-3,2E0,-3.1555727E-2,-1.6215872E-3],"split_indices":[2,20,20,1,0,0,0,0,16,0,0],"split_type":[0,0,0,0,0,0,0,0,0,0,0],"sum_hessian":[2.2449024E1,1.7687128E1,4.761896E0,1.6670275E1,1.0168542E0,1.8538013E0,2.9080951E0,1.0747923E0,1.5595482E1,1.4439737E1,1.1557447E0],"tree_param":{"num_deleted":"0","num_feature":"23","num_nodes":"11","size_leaf_vector":"1"}},{"base_weights":[-2.7306947E-1,-5.7816815E-1,4.7457322E-1,-5.9304637E-1,-8.8903256E-4,-1.0084665E-3,2.8043745E-2,-1.2554115E-3,-6.0725594E-1,-3.1070594E-2,-1.6133813E-3],"categories":[],"categories_nodes":[],"categories_segments":[],"categories_sizes":[],"default_left":[0,0,0,0,0,0,0,0,0,0,0],"id":11,"left_children":[1,3,5,7,-1,-1,-1,-1,9,-1,-1],"loss_changes":[1.0077679E1,1.2251186E-1,7.454641E-1,5.9975624E-2,0E0,0E0,0E0,0E0,5.0182343E-3,0E0,0E0],"parents":[2147483647,0,0,1,1,2,2,3,3,8,8],"right_children":[2,4,6,8,-1,-1,-1,-1,10,-1,-1],"split_conditions":[1E0,4.105263E2,2.3761157E2,1.726E1,-8.8903256E-4,-1.0084665E-3,2.8043745E-2,-1.2554115E-3,2E0,-3.1070594E-2,-1.6133813E-3],"split_indices":[2,20,20,1,0,0,0,0,16,0,0],"split_type":[0,0,0,0,0,0,0,0,0,0,0],"sum_hessian":[2.2151215E1,1.7341333E1,4.8098817E0,1.6325115E1,1.0162189E0,1.8525681E0,2.9573135E0,1.0738703E0,1.5251245E1,1.4096807E1,1.1544381E0],"tree_param":{"num_deleted":"0","num_feature":"23","num_nodes":"11","size_leaf_vector":"1"}},{"base_weights":[-2.6439086E-1,-5.691681E-1,4.6756068E-1,-5.841017E-1,-8.444004E-4,2.6924262E-2,-1.9009952E-3,-5.99781E-1,-9.3949586E-4,-1.2494306E-3,-3.0756518E-2],"categories":[],"categories_nodes":[],"categories_segments":[],"categories_sizes":[],"default_left":[0,0,0,0,0,0,0,0,0,0,0],"id":12,"left_children":[1,3,5,7,-1,-1,-1,9,-1,-1,-1],"loss_changes":[9.769312E0,1.2408924E-1,7.3748064E-1,1.17733955E-1,0E0,0E0,0E0,6.660938E-2,0E0,0E0,0E0],"parents":[2147483647,0,0,1,1,2,2,3,3,7,7],"right_children":[2,4,6,8,-1,-1,-1,10,-1,-1,-1],"split_conditions":[1E0,1.2142858E1,2.48E1,2E0,-8.444004E-4,2.6924262E-2,-1.9009952E-3,1.726E1,-9.3949586E-4,-1.2494306E-3,-3.0756518E-2],"split_indices":[2,19,1,16,0,0,0,1,0,0,0],"split_type":[0,0,0,0,0,0,0,0,0,0,0],"sum_hessian":[2.1863173E1,1.7006008E1,4.857165E0,1.5997259E1,1.0087495E0,3.6888523E0,1.1683125E0,1.4972254E1,1.0250049E0,1.0729531E0,1.3899302E1],"tree_param":{"num_deleted":"0","num_feature":"23","num_nodes":"11","size_leaf_vector":"1"}},{"base_weights":[-2.562881E-1,-5.602333E-1,4.5918876E-1,-5.751483E-1,-8.177126E-4,-1.1447669E-3,2.7300064E-2,-1.2434822E-3,-2.9450953E-2],"categories":[],"categories_nodes":[],"categories_segments":[],"categories_sizes":[],"default_left":[0,0,0,0,0,0,0,0,0],"id":13,"left_children":[1,3,5,7,-1,-1,-1,-1,-1],"loss_changes":[9.442676E0,1.2234211E-1,7.4920917E-1,4.9464226E-2,0E0,0E0,0E0,0E0,0E0],"parents":[2147483647,0,0,1,1,2,2,3,3],"right_children":[2,4,6,8,-1,-1,-1,-1,-1],"split_conditions":[1E0,4.105263E2,2.3761157E2,1.726E1,-8.177126E-4,-1.1447669E-3,2.7300064E-2,-1.2434822E-3,-2.9450953E-2],"split_indices":[2,20,20,1,0,0,0,0,0],"split_type":[0,0,0,0,0,0,0,0,0],"sum_hessian":[2.159186E1,1.667701E1,4.914849E0,1.5672292E1,1.0047185E0,1.873524E0,3.0413249E0,1.0720406E0,1.4600251E1],"tree_param":{"num_deleted":"0","num_feature":"23","num_nodes":"9","size_leaf_vector":"1"}},{"base_weights":[-2.475754E-1,-5.510441E-1,4.5233467E-1,-5.6583863E-1,-8.072639E-4,-1.1358723E-3,2.6882067E-2,-5.819192E-1,-8.01291E-4,-1.2375669E-3,-2.9846495E-2],"categories":[],"categories_nodes":[],"categories_segments":[],"categories_sizes":[],"default_left":[0,0,0,0,0,0,0,0,0,0,0],"id":14,"left_children":[1,3,5,7,-1,-1,-1,9,-1,-1,-1],"loss_changes":[9.142211E0,1.1713791E-1,7.284188E-1,1.308136E-1,0E0,0E0,0E0,5.582142E-2,0E0,0E0,0E0],"parents":[2147483647,0,0,1,1,2,2,3,3,7,7],"right_children":[2,4,6,8,-1,-1,-1,10,-1,-1,-1],"split_conditions":[1E0,3.2895E6,2.3761157E2,2E0,-8.072639E-4,-1.1358723E-3,2.6882067E-2,1.726E1,-8.01291E-4,-1.2375669E-3,-2.9846495E-2],"split_indices":[2,22,20,16,0,0,0,1,0,0,0],"split_type":[0,0,0,0,0,0,0,0,0,0,0],"sum_hessian":[2.130707E1,1.634646E1,4.9606085E0,1.5343656E1,1.002805E0,1.872131E0,3.0884776E0,1.4340289E1,1.0033666E0,1.0711328E0,1.3269156E1],"tree_param":{"num_deleted":"0","num_feature":"23","num_nodes":"11","size_leaf_vector":"1"}},{"base_weights":[-2.3960601E-1,-5.424454E-1,4.45546E-1,-5.57098E-1,-8.0362766E-4,2.5840122E-2,-2.0375322E-3,-5.730401E-1,-7.976795E-4,-1.2316832E-3,-2.9393638E-2],"categories":[],"categories_nodes":[],"categories_segments":[],"categories_sizes":[],"default_left":[0,0,0,0,0,0,0,0,0,0,0],"id":15,"left_children":[1,3,5,7,-1,-1,-1,9,-1,-1,-1],"loss_changes":[8.857916E0,1.1127663E-1,7.3057055E-1,1.24556065E-1,0E0,0E0,0E0,5.0669193E-2,0E0,0E0,0E0],"parents":[2147483647,0,0,1,1,2,2,3,3,7,7],"right_children":[2,4,6,8,-1,-1,-1,10,-1,-1,-1],"split_conditions":[1E0,3.2895E6,2.48E1,2E0,-8.0362766E-4,2.5840122E-2,-2.0375322E-3,1.726E1,-7.976795E-4,-1.2316832E-3,-2.9393638E-2],"split_indices":[2,22,1,16,0,0,0,1,0,0,0],"split_type":[0,0,0,0,0,0,0,0,0,0,0],"sum_hessian":[2.1042654E1,1.6037066E1,5.0055885E0,1.5034829E1,1.0022357E0,3.8187273E0,1.1868613E0,1.403203E1,1.002799E0,1.0702295E0,1.2961801E1],"tree_param":{"num_deleted":"0","num_feature":"23","num_nodes":"11","size_leaf_vector":"1"}},{"base_weights":[-2.3233667E-1,-5.340189E-1,4.3747768E-1,-5.485276E-1,-8.0000976E-4,-1.2666445E-3,2.6160562E-2,-5.6432897E-1,-7.9408643E-4,-1.2258309E-3,-2.8949047E-2],"categories":[],"categories_nodes":[],"categories_segments":[],"categories_sizes":[],"default_left":[0,0,0,0,0,0,0,0,0,0,0],"id":16,"left_children":[1,3,5,7,-1,-1,-1,9,-1,-1,-1],"loss_changes":[8.559567E0,1.0567045E-1,7.301266E-1,1.1856222E-1,0E0,0E0,0E0,4.5767307E-2,0E0,0E0,0E0],"parents":[2147483647,0,0,1,1,2,2,3,3,7,7],"right_children":[2,4,6,8,-1,-1,-1,10,-1,-1,-1],"split_conditions":[1E0,3.2895E6,2.3761157E2,2E0,-8.0000976E-4,-1.2666445E-3,2.6160562E-2,1.726E1,-7.9408643E-4,-1.2258309E-3,-2.8949047E-2],"split_indices":[2,22,20,16,0,0,0,1,0,0,0],"split_type":[0,0,0,0,0,0,0,0,0,0,0],"sum_hessian":[2.0797844E1,1.5737214E1,5.0606303E0,1.4735545E1,1.0016689E0,1.8920498E0,3.1685803E0,1.3733311E1,1.0022343E0,1.0693309E0,1.266398E1],"tree_param":{"num_deleted":"0","num_feature":"23","num_nodes":"11","size_leaf_vector":"1"}},{"base_weights":[-2.2491293E-1,-5.257603E-1,4.3085405E-1,-5.401234E-1,-7.964095E-4,5.0165385E-1,-2.0987752E-3,-5.557816E-1,-7.9051097E-4,1.4844299E-3,2.6448553E-2,-1.2200117E-3,-2.851252E-2],"categories":[],"categories_nodes":[],"categories_segments":[],"categories_sizes":[],"default_left":[0,0,0,0,0,0,0,0,0,0,0,0,0],"id":17,"left_children":[1,3,5,7,-1,9,-1,11,-1,-1,-1,-1,-1],"loss_changes":[8.292459E0,1.0030794E-1,7.161956E-1,1.12822056E-1,0E0,2.2282362E-2,0E0,4.1104317E-2,0E0,0E0,0E0,0E0,0E0],"parents":[2147483647,0,0,1,1,2,2,3,3,5,5,7,7],"right_children":[2,4,6,8,-1,10,-1,12,-1,-1,-1,-1,-1],"split_conditions":[1E0,3.2895E6,2.48E1,2E0,-7.964095E-4,2.2222223E2,-2.0987752E-3,1.726E1,-7.9051097E-4,1.4844299E-3,2.6448553E-2,-1.2200117E-3,-2.851252E-2],"split_indices":[2,22,1,16,0,20,0,1,0,0,0,0,0],"split_type":[0,0,0,0,0,0,0,0,0,0,0,0,0],"sum_hessian":[2.05506E1,1.5446632E1,5.103966E0,1.4445528E1,1.001105E0,3.9090302E0,1.194936E0,1.3443855E1,1.0016724E0,1.355631E0,2.5533993E0,1.068437E0,1.2375419E1],"tree_param":{"num_deleted":"0","num_feature":"23","num_nodes":"13","size_leaf_vector":"1"}},{"base_weights":[-2.1736522E-1,-5.176656E-1,4.2540663E-1,-5.318814E-1,-7.928274E-4,4.9532762E-1,-2.0878755E-3,-5.4739404E-1,-7.869536E-4,1.475401E-3,2.6104873E-2,-1.2142229E-3,-2.8083865E-2],"categories":[],"categories_nodes":[],"categories_segments":[],"categories_sizes":[],"default_left":[0,0,0,0,0,0,0,0,0,0,0,0,0],"id":18,"left_children":[1,3,5,7,-1,9,-1,11,-1,-1,-1,-1,-1],"loss_changes":[8.051554E0,9.517908E-2,7.0133567E-1,1.0732412E-1,0E0,1.9836426E-2,0E0,3.666973E-2,0E0,0E0,0E0,0E0,0E0],"parents":[2147483647,0,0,1,1,2,2,3,3,5,5,7,7],"right_children":[2,4,6,8,-1,10,-1,12,-1,-1,-1,-1,-1],"split_conditions":[1E0,3.2895E6,2.48E1,2E0,-7.928274E-4,2.2222223E2,-2.0878755E-3,1.726E1,-7.869536E-4,1.475401E-3,2.6104873E-2,-1.2142229E-3,-2.8083865E-2],"split_indices":[2,22,1,16,0,20,0,1,0,0,0,0,0],"split_type":[0,0,0,0,0,0,0,0,0,0,0,0,0],"sum_hessian":[2.0303743E1,1.5165049E1,5.1386943E0,1.4164505E1,1.0005436E0,3.9453313E0,1.1933631E0,1.3163391E1,1.001113E0,1.3568996E0,2.5884316E0,1.0675474E0,1.2095844E1],"tree_param":{"num_deleted":"0","num_feature":"23","num_nodes":"13","size_leaf_vector":"1"}},{"base_weights":[-2.100702E-1,-5.0973094E-1,4.2000014E-1,-5.2286714E-1,-1.0097077E-3,4.890563E-1,-2.0770435E-3,-5.369673E-1,-1.2721799E-3,1.4664193E-3,2.5764331E-2,-1.2084659E-3,-2.7554441E-2],"categories":[],"categories_nodes":[],"categories_segments":[],"categories_sizes":[],"default_left":[0,0,0,0,0,0,0,0,0,0,0,0,0],"id":19,"left_children":[1,3,5,7,-1,9,-1,11,-1,-1,-1,-1,-1],"loss_changes":[7.817356E0,5.4484844E-2,6.8674874E-1,3.0583382E-2,0E0,1.7469168E-2,0E0,3.1081676E-2,0E0,0E0,0E0,0E0,0E0],"parents":[2147483647,0,0,1,1,2,2,3,3,5,5,7,7],"right_children":[2,4,6,8,-1,10,-1,12,-1,-1,-1,-1,-1],"split_conditions":[1E0,4.0471158E2,2.48E1,4.5E1,-1.0097077E-3,2.2222223E2,-2.0770435E-3,1.726E1,-1.2721799E-3,1.4664193E-3,2.5764331E-2,-1.2084659E-3,-2.7554441E-2],"split_indices":[2,20,1,11,0,20,0,1,0,0,0,0,0],"split_type":[0,0,0,0,0,0,0,0,0,0,0,0,0],"sum_hessian":[2.0064966E1,1.4892192E1,5.1727743E0,1.3839955E1,1.0522366E0,3.9809756E0,1.1917987E0,1.26854E1,1.1545553E0,1.3581612E0,2.6228147E0,1.0666625E0,1.1618737E1],"tree_param":{"num_deleted":"0","num_feature":"23","num_nodes":"13","size_leaf_vector":"1"}},{"base_weights":[-2.0316757E-1,-5.020382E-1,4.1463637E-1,-5.1500255E-1,-1.0049728E-3,4.8284164E-1,-2.066279E-3,-5.2889663E-1,-1.2657327E-3,1.4574873E-3,2.5427023E-2,-1.2027406E-3,-2.7141083E-2],"categories":[],"categories_nodes":[],"categories_segments":[],"categories_sizes":[],"default_left":[0,0,0,0,0,0,0,0,0,0,0,0,0],"id":20,"left_children":[1,3,5,7,-1,9,-1,11,-1,-1,-1,-1,-1],"loss_changes":[7.5916686E0,5.0409794E-2,6.7243433E-1,2.6569843E-2,0E0,1.5178919E-2,0E0,2.7110577E-2,0E0,0E0,0E0,0E0,0E0],"parents":[2147483647,0,0,1,1,2,2,3,3,5,5,7,7],"right_children":[2,4,6,8,-1,10,-1,12,-1,-1,-1,-1,-1],"split_conditions":[1E0,4.0471158E2,2.48E1,4.5E1,-1.0049728E-3,2.2222223E2,-2.066279E-3,1.726E1,-1.2657327E-3,1.4574873E-3,2.5427023E-2,-1.2027406E-3,-2.7141083E-2],"split_indices":[2,20,1,11,0,20,0,1,0,0,0,0,0],"split_type":[0,0,0,0,0,0,0,0,0,0,0,0,0],"sum_hessian":[1.9841494E1,1.4635304E1,5.2061896E0,1.3583835E1,1.05147E0,4.015947E0,1.1902429E0,1.2430452E1,1.1533818E0,1.3594152E0,2.6565318E0,1.0657822E0,1.136467E1],"tree_param":{"num_deleted":"0","num_feature":"23","num_nodes":"13","size_leaf_vector":"1"}},{"base_weights":[-1.9650264E-1,-4.9449903E-1,4.093167E-1,-5.0738287E-1,-9.825585E-4,-1.2714423E-3,4.9001583E-1,-1.197046E-3,-2.5987372E-2,2.5922501E-2,1.2790384E-3],"categories":[],"categories_nodes":[],"categories_segments":[],"categories_sizes":[],"default_left":[0,0,0,0,0,0,0,0,0,0,0],"id":21,"left_children":[1,3,5,7,-1,-1,9,-1,-1,-1,-1],"loss_changes":[7.3723555E0,4.9485207E-2,6.5924144E-1,1.5078068E-2,0E0,0E0,4.3627262E-2,0E0,0E0,0E0,0E0],"parents":[2147483647,0,0,1,1,2,2,3,3,6,6],"right_children":[2,4,6,8,-1,-1,10,-1,-1,-1,-1],"split_conditions":[1E0,1.2E1,2.3761157E2,1.726E1,-9.825585E-4,-1.2714423E-3,3.6179776E0,-1.197046E-3,-2.5987372E-2,2.5922501E-2,1.2790384E-3],"split_indices":[2,19,20,1,0,0,21,0,0,0,0],"split_type":[0,0,0,0,0,0,0,0,0,0,0],"sum_hessian":[1.9625158E1,1.4386233E1,5.238925E0,1.3339141E1,1.0470922E0,1.892501E0,3.346424E0,1.0649062E0,1.2274235E1,2.057436E0,1.2889881E0],"tree_param":{"num_deleted":"0","num_feature":"23","num_nodes":"11","size_leaf_vector":"1"}},{"base_weights":[-1.8903574E-1,-4.8659995E-1,4.051593E-1,-5.004216E-1,-9.715864E-4,4.728047E-1,-2.0918814E-3,-1.1913814E-3,-2.5632981E-2,1.4563538E-3,2.4867227E-2],"categories":[],"categories_nodes":[],"categories_segments":[],"categories_sizes":[],"default_left":[0,0,0,0,0,0,0,0,0,0,0],"id":22,"left_children":[1,3,5,7,-1,9,-1,-1,-1,-1,-1],"loss_changes":[7.168582E0,5.8559418E-2,6.5937257E-1,1.2177467E-2,0E0,8.3425045E-3,0E0,0E0,0E0,0E0,0E0],"parents":[2147483647,0,0,1,1,2,2,3,3,5,5],"right_children":[2,4,6,8,-1,10,-1,-1,-1,-1,-1],"split_conditions":[1E0,1E0,2.48E1,1.726E1,-9.715864E-4,2.2222223E2,-2.0918814E-3,-1.1913814E-3,-2.5632981E-2,1.4563538E-3,2.4867227E-2],"split_indices":[2,15,1,1,0,20,0,0,0,0,0],"split_type":[0,0,0,0,0,0,0,0,0,0,0],"sum_hessian":[1.9393375E1,1.4128699E1,5.264676E0,1.3031347E1,1.0973524E0,4.0712085E0,1.1934675E0,1.0640347E0,1.1967312E1,1.3595742E0,2.7116344E0],"tree_param":{"num_deleted":"0","num_feature":"23","num_nodes":"11","size_leaf_vector":"1"}},{"base_weights":[-1.8225327E-1,-4.7882187E-1,3.9992324E-1,-4.9220052E-1,-8.3512405E-4,4.667455E-1,-2.0810275E-3,-5.069771E-1,-1.0023194E-3,1.4474763E-3,2.4538932E-2,-1.185748E-3,-2.6017386E-2],"categories":[],"categories_nodes":[],"categories_segments":[],"categories_sizes":[],"default_left":[0,0,0,0,0,0,0,0,0,0,0,0,0],"id":23,"left_children":[1,3,5,7,-1,9,-1,11,-1,-1,-1,-1,-1],"loss_changes":[6.952642E0,6.5439224E-2,6.4557624E-1,5.784893E-2,0E0,6.3221455E-3,0E0,1.7158508E-2,0E0,0E0,0E0,0E0,0E0],"parents":[2147483647,0,0,1,1,2,2,3,3,5,5,7,7],"right_children":[2,4,6,8,-1,10,-1,12,-1,-1,-1,-1,-1],"split_conditions":[1E0,4.0471158E2,2.48E1,4.5E1,-8.3512405E-4,2.2222223E2,-2.0810275E-3,1.726E1,-1.0023194E-3,1.4474763E-3,2.4538932E-2,-1.185748E-3,-2.6017386E-2],"split_indices":[2,20,1,11,0,20,0,1,0,0,0,0,0],"split_type":[0,0,0,0,0,0,0,0,0,0,0,0,0],"sum_hessian":[1.9177921E1,1.3881706E1,5.296215E0,1.2858506E1,1.0232002E0,4.1043134E0,1.1919017E0,1.1753147E1,1.1053597E0,1.3608199E0,2.7434936E0,1.0631677E0,1.0689979E1],"tree_param":{"num_deleted":"0","num_feature":"23","num_nodes":"13","size_leaf_vector":"1"}},{"base_weights":[-1.7620501E-1,-4.716661E-1,3.9473465E-1,-4.8574224E-1,-8.5624924E-4,4.6074757E-1,-2.0702414E-3,-1.180145E-3,-2.4879484E-2,1.4386463E-3,2.4214106E-2],"categories":[],"categories_nodes":[],"categories_segments":[],"categories_sizes":[],"default_left":[0,0,0,0,0,0,0,0,0,0,0],"id":24,"left_children":[1,3,5,7,-1,9,-1,-1,-1,-1,-1],"loss_changes":[6.7506146E0,6.815815E-2,6.320498E-1,6.1717033E-3,0E0,4.3764114E-3,0E0,0E0,0E0,0E0,0E0],"parents":[2147483647,0,0,1,1,2,2,3,3,5,5],"right_children":[2,4,6,8,-1,10,-1,-1,-1,-1,-1],"split_conditions":[1E0,1E0,2.48E1,1.726E1,-8.5624924E-4,2.2222223E2,-2.0702414E-3,-1.180145E-3,-2.4879484E-2,1.4386463E-3,2.4214106E-2],"split_indices":[2,15,1,1,0,20,0,0,0,0,0],"split_type":[0,0,0,0,0,0,0,0,0,0,0],"sum_hessian":[1.8980806E1,1.3653764E1,5.327043E0,1.2577825E1,1.0759395E0,4.1366982E0,1.1903446E0,1.062305E0,1.1515519E1,1.3620583E0,2.77464E0],"tree_param":{"num_deleted":"0","num_feature":"23","num_nodes":"11","size_leaf_vector":"1"}},{"base_weights":[-1.698458E-1,-4.6415398E-1,3.895946E-1,-4.7789454E-1,-7.153963E-4,4.548118E-1,-2.0595232E-3,-4.9074817E-1,-1.2653262E-3,1.429865E-3,2.3892794E-2,-1.1745713E-3,-2.518378E-2],"categories":[],"categories_nodes":[],"categories_segments":[],"categories_sizes":[],"default_left":[0,0,0,0,0,0,0,0,0,0,0,0,0],"id":25,"left_children":[1,3,5,7,-1,9,-1,11,-1,-1,-1,-1,-1],"loss_changes":[6.5465584E0,7.639122E-2,6.187918E-1,6.2232018E-3,0E0,2.503872E-3,0E0,1.0069847E-2,0E0,0E0,0E0,0E0,0E0],"parents":[2147483647,0,0,1,1,2,2,3,3,5,5,7,7],"right_children":[2,4,6,8,-1,10,-1,12,-1,-1,-1,-1,-1],"split_conditions":[1E0,1.2E1,2.48E1,4.5E1,-7.153963E-4,2.2222223E2,-2.0595232E-3,1.726E1,-1.2653262E-3,1.429865E-3,2.3892794E-2,-1.1745713E-3,-2.518378E-2],"split_indices":[2,19,1,11,0,20,0,1,0,0,0,0,0],"split_type":[0,0,0,0,0,0,0,0,0,0,0,0,0],"sum_hessian":[1.8778017E1,1.3420867E1,5.3571496E0,1.2418044E1,1.002823E0,4.1683536E0,1.188796E0,1.1255238E1,1.1628062E0,1.3632894E0,2.8050642E0,1.0614467E0,1.0193791E1],"tree_param":{"num_deleted":"0","num_feature":"23","num_nodes":"13","size_leaf_vector":"1"}},{"base_weights":[-1.6426906E-1,-4.573146E-1,3.8450408E-1,-4.7165045E-1,-7.4706273E-4,4.4893906E-1,-2.048871E-3,-4.8436326E-1,-1.2588743E-3,1.4211304E-3,2.3575038E-2,-1.1690286E-3,-2.485817E-2],"categories":[],"categories_nodes":[],"categories_segments":[],"categories_sizes":[],"default_left":[0,0,0,0,0,0,0,0,0,0,0,0,0],"id":26,"left_children":[1,3,5,7,-1,9,-1,11,-1,-1,-1,-1,-1],"loss_changes":[6.3568497E0,7.67107E-2,6.0579896E-1,3.7846565E-3,0E0,7.0405006E-4,0E0,7.619381E-3,0E0,0E0,0E0,0E0,0E0],"parents":[2147483647,0,0,1,1,2,2,3,3,5,5,7,7],"right_children":[2,4,6,8,-1,10,-1,12,-1,-1,-1,-1,-1],"split_conditions":[1E0,1E0,2.48E1,4.5E1,-7.4706273E-4,2.2222223E2,-2.048871E-3,1.726E1,-1.2588743E-3,1.4211304E-3,2.3575038E-2,-1.1690286E-3,-2.485817E-2],"split_indices":[2,15,1,11,0,20,0,1,0,0,0,0,0],"split_type":[0,0,0,0,0,0,0,0,0,0,0,0,0],"sum_hessian":[1.8594604E1,1.3208076E1,5.3865285E0,1.2152436E1,1.0556395E0,4.1992726E0,1.187256E0,1.0990827E1,1.1616092E0,1.3645132E0,2.8347592E0,1.0605928E0,9.930234E0],"tree_param":{"num_deleted":"0","num_feature":"23","num_nodes":"13","size_leaf_vector":"1"}},{"base_weights":[-1.5890785E-1,-4.505945E-1,3.7946394E-1,-4.6476266E-1,-7.435406E-4,2.2156503E-2,-2.038285E-3,-4.7725785E-1,-1.252461E-3,-1.1635146E-3,-2.449244E-2],"categories":[],"categories_nodes":[],"categories_segments":[],"categories_sizes":[],"default_left":[0,0,0,0,0,0,0,0,0,0,0],"id":27,"left_children":[1,3,5,7,-1,-1,-1,9,-1,-1,-1],"loss_changes":[6.172703E0,7.2900295E-2,5.9306884E-1,1.0461807E-3,0E0,0E0,0E0,4.8418045E-3,0E0,0E0,0E0],"parents":[2147483647,0,0,1,1,2,2,3,3,7,7],"right_children":[2,4,6,8,-1,-1,-1,10,-1,-1,-1],"split_conditions":[1E0,1E0,2.48E1,4.5E1,-7.435406E-4,2.2156503E-2,-2.038285E-3,1.726E1,-1.252461E-3,-1.1635146E-3,-2.449244E-2],"split_indices":[2,15,1,11,0,0,0,1,0,0,0],"split_type":[0,0,0,0,0,0,0,0,0,0,0],"sum_hessian":[1.8419363E1,1.300419E1,5.415172E0,1.1949192E1,1.0549983E0,4.229448E0,1.1857244E0,1.0788774E1,1.1604192E0,1.059743E0,9.72903E0],"tree_param":{"num_deleted":"0","num_feature":"23","num_nodes":"11","size_leaf_vector":"1"}},{"base_weights":[-1.5455024E-1,-4.440077E-1,3.7243676E-1,-4.5800787E-1,-7.4003625E-4,-1.4008346E-3,4.4962025E-1,-4.7025412E-1,-1.1104781E-3,2.4362555E-2,6.5563316E-4,-1.1580316E-3,-2.4129504E-2],"categories":[],"categories_nodes":[],"categories_segments":[],"categories_sizes":[],"default_left":[0,0,0,0,0,0,0,0,0,0,0,0,0],"id":28,"left_children":[1,3,5,7,-1,-1,9,11,-1,-1,-1,-1,-1],"loss_changes":[5.9653378E0,6.9253445E-2,6.037979E-1,1.1646748E-2,0E0,0E0,1.5864873E-1,2.1858215E-3,0E0,0E0,0E0,0E0,0E0],"parents":[2147483647,0,0,1,1,2,2,3,3,6,6,7,7],"right_children":[2,4,6,8,-1,-1,10,12,-1,-1,-1,-1,-1],"split_conditions":[1E0,1E0,2.3761157E2,2E0,-7.4003625E-4,-1.4008346E-3,3.6179776E0,1.726E1,-1.1104781E-3,2.4362555E-2,6.5563316E-4,-1.1580316E-3,-2.4129504E-2],"split_indices":[2,15,20,16,0,0,21,1,0,0,0,0,0],"split_type":[0,0,0,0,0,0,0,0,0,0,0,0,0],"sum_hessian":[1.8265898E1,1.2806362E1,5.459535E0,1.1752002E1,1.0543602E0,1.9116067E0,3.5479286E0,1.0661762E1,1.0902404E0,2.1961162E0,1.3518124E0,1.0588979E0,9.602864E0],"tree_param":{"num_deleted":"0","num_feature":"23","num_nodes":"13","size_leaf_vector":"1"}},{"base_weights":[-1.490712E-1,-4.375435E-1,3.6854774E-1,-4.5137683E-1,-7.365502E-4,-1.3897987E-3,4.4480467E-1,-4.641507E-1,-1.1361194E-3,2.4095919E-2,6.517048E-4,-1.1525773E-3,-2.3817495E-2],"categories":[],"categories_nodes":[],"categories_segments":[],"categories_sizes":[],"default_left":[0,0,0,0,0,0,0,0,0,0,0,0,0],"id":29,"left_children":[1,3,5,7,-1,-1,9,11,-1,-1,-1,-1,-1],"loss_changes":[5.8074083E0,6.576109E-2,5.9155226E-1,1.257658E-2,0E0,0E0,1.5466714E-1,7.1525574E-5,0E0,0E0,0E0,0E0,0E0],"parents":[2147483647,0,0,1,1,2,2,3,3,6,6,7,7],"right_children":[2,4,6,8,-1,-1,10,12,-1,-1,-1,-1,-1],"split_conditions":[1E0,1E0,2.3761157E2,4.5E1,-7.365502E-4,-1.3897987E-3,3.6179776E0,1.726E1,-1.1361194E-3,2.4095919E-2,6.517048E-4,-1.1525773E-3,-2.3817495E-2],"split_indices":[2,15,20,11,0,0,21,1,0,0,0,0,0],"split_type":[0,0,0,0,0,0,0,0,0,0,0,0,0],"sum_hessian":[1.8093273E1,1.2611693E1,5.4815803E0,1.1557967E1,1.0537255E0,1.9098963E0,3.571684E0,1.0419385E1,1.1385827E0,2.2194607E0,1.3522233E0,1.058057E0,9.361328E0],"tree_param":{"num_deleted":"0","num_feature":"23","num_nodes":"13","size_leaf_vector":"1"}},{"base_weights":[-1.4379151E-1,-4.3119428E-1,3.646831E-1,-4.4452262E-1,-6.8352727E-4,-1.3788578E-3,4.4002622E-1,-2.2974921E-2,-7.5019913E-4,2.3831483E-2,6.477998E-4],"categories":[],"categories_nodes":[],"categories_segments":[],"categories_sizes":[],"default_left":[0,0,0,0,0,0,0,0,0,0,0],"id":30,"left_children":[1,3,5,7,-1,-1,9,-1,-1,-1,-1],"loss_changes":[5.653826E0,6.402397E-2,5.7952714E-1,6.880045E-2,0E0,0E0,1.5076637E-1,0E0,0E0,0E0,0E0],"parents":[2147483647,0,0,1,1,2,2,3,3,6,6],"right_children":[2,4,6,8,-1,-1,10,-1,-1,-1,-1],"split_conditions":[1E0,3.9537036E2,2.3761157E2,4.5E1,-6.8352727E-4,-1.3788578E-3,3.6179776E0,-2.2974921E-2,-7.5019913E-4,2.3831483E-2,6.477998E-4],"split_indices":[2,20,20,11,0,0,21,0,0,0,0],"split_type":[0,0,0,0,0,0,0,0,0,0,0],"sum_hessian":[1.7928133E1,1.24250345E1,5.503099E0,1.1414028E1,1.011006E0,1.9081999E0,3.5948992E0,1.0355002E1,1.0590267E0,2.2422674E0,1.3526318E0],"tree_param":{"num_deleted":"0","num_feature":"23","num_nodes":"11","size_leaf_vector":"1"}},{"base_weights":[-1.380263E-1,-4.243318E-1,3.608438E-1,-4.3841147E-1,-6.389682E-4,4.2424643E-1,-2.1276127E-3,-4.5135388E-1,-9.1753557E-4,1.302E-3,2.233075E-2,-1.039743E-3,-2.319636E-2],"categories":[],"categories_nodes":[],"categories_segments":[],"categories_sizes":[],"default_left":[0,0,0,0,0,0,0,0,0,0,0,0,0],"id":31,"left_children":[1,3,5,7,-1,9,-1,11,-1,-1,-1,-1,-1],"loss_changes":[5.495104E0,7.277918E-2,5.7757616E-1,3.239298E-2,0E0,1.1317253E-2,0E0,1.2533665E-2,0E0,0E0,0E0,0E0,0E0],"parents":[2147483647,0,0,1,1,2,2,3,3,5,5,7,7],"right_children":[2,4,6,8,-1,10,-1,12,-1,-1,-1,-1,-1],"split_conditions":[1E0,1E0,2.48E1,2E0,-6.389682E-4,2.2222223E2,-2.1276127E-3,1.726E1,-9.1753557E-4,1.302E-3,2.233075E-2,-1.039743E-3,-2.319636E-2],"split_indices":[2,15,1,16,0,20,0,1,0,0,0,0,0],"split_type":[0,0,0,0,0,0,0,0,0,0,0,0,0],"sum_hessian":[1.7752916E1,1.2228833E1,5.524083E0,1.1193272E1,1.0355611E0,4.327111E0,1.1969721E0,1.0136007E1,1.0572648E0,1.381149E0,2.9459617E0,1.0406021E0,9.095405E0],"tree_param":{"num_deleted":"0","num_feature":"23","num_nodes":"13","size_leaf_vector":"1"}},{"base_weights":[-1.3349317E-1,-4.181787E-1,3.560517E-1,-4.3209547E-1,-6.360021E-4,4.1871858E-1,-2.116548E-3,-4.4485122E-1,-9.1321126E-4,1.2939695E-3,2.2031432E-2,-1.0349151E-3,-2.2861201E-2],"categories":[],"categories_nodes":[],"categories_segments":[],"categories_sizes":[],"default_left":[0,0,0,0,0,0,0,0,0,0,0,0,0],"id":32,"left_children":[1,3,5,7,-1,9,-1,11,-1,-1,-1,-1,-1],"loss_changes":[5.335354E0,6.945729E-2,5.6544805E-1,2.9682875E-2,0E0,9.515762E-3,0E0,1.0102272E-2,0E0,0E0,0E0,0E0,0E0],"parents":[2147483647,0,0,1,1,2,2,3,3,5,5,7,7],"right_children":[2,4,6,8,-1,10,-1,12,-1,-1,-1,-1,-1],"split_conditions":[1E0,1E0,2.48E1,2E0,-6.360021E-4,2.2222223E2,-2.116548E-3,1.726E1,-9.1321126E-4,1.2939695E-3,2.2031432E-2,-1.0349151E-3,-2.2861201E-2],"split_indices":[2,15,1,16,0,20,0,1,0,0,0,0,0],"split_type":[0,0,0,0,0,0,0,0,0,0,0,0,0],"sum_hessian":[1.7599358E1,1.204982E1,5.5495377E0,1.1014799E1,1.0350208E0,4.354153E0,1.1953844E0,9.958269E0,1.0565296E0,1.3822668E0,2.9718864E0,1.0398527E0,8.918416E0],"tree_param":{"num_deleted":"0","num_feature":"23","num_nodes":"13","size_leaf_vector":"1"}},{"base_weights":[-1.2913214E-1,-4.1214594E-1,3.5131234E-1,-4.258997E-1,-6.330507E-4,4.132563E-1,-2.1055525E-3,-4.392262E-1,-9.2211395E-4,1.2859831E-3,2.1735799E-2,-1.0301125E-3,-2.2573402E-2],"categories":[],"categories_nodes":[],"categories_segments":[],"categories_sizes":[],"default_left":[0,0,0,0,0,0,0,0,0,0,0,0,0],"id":33,"left_children":[1,3,5,7,-1,9,-1,11,-1,-1,-1,-1,-1],"loss_changes":[5.180411E0,6.627321E-2,5.535741E-1,3.216648E-2,0E0,7.786274E-3,0E0,8.165836E-3,0E0,0E0,0E0,0E0,0E0],"parents":[2147483647,0,0,1,1,2,2,3,3,5,5,7,7],"right_children":[2,4,6,8,-1,10,-1,12,-1,-1,-1,-1,-1],"split_conditions":[1E0,1E0,2.48E1,4.5E1,-6.330507E-4,2.2222223E2,-2.1055525E-3,1.726E1,-9.2211395E-4,1.2859831E-3,2.1735799E-2,-1.0301125E-3,-2.2573402E-2],"split_indices":[2,15,1,11,0,20,0,1,0,0,0,0,0],"split_type":[0,0,0,0,0,0,0,0,0,0,0,0,0],"sum_hessian":[1.7450354E1,1.1876104E1,5.5742483E0,1.0841621E1,1.0344832E0,4.3804426E0,1.1938053E0,9.743269E0,1.0983523E0,1.3833776E0,2.9970653E0,1.0391073E0,8.704162E0],"tree_param":{"num_deleted":"0","num_feature":"23","num_nodes":"13","size_leaf_vector":"1"}},{"base_weights":[-1.2494835E-1,-4.0621975E-1,3.46626E-1,-4.198087E-1,-6.3011487E-4,4.0785965E-1,-2.0946262E-3,-4.3287638E-1,-8.1462687E-4,1.2780427E-3,2.144385E-2,-1.0253349E-3,-2.2243697E-2],"categories":[],"categories_nodes":[],"categories_segments":[],"categories_sizes":[],"default_left":[0,0,0,0,0,0,0,0,0,0,0,0,0],"id":34,"left_children":[1,3,5,7,-1,9,-1,11,-1,-1,-1,-1,-1],"loss_changes":[5.0301576E0,6.32143E-2,5.4195046E-1,3.849554E-2,0E0,6.125927E-3,0E0,5.918026E-3,0E0,0E0,0E0,0E0,0E0],"parents":[2147483647,0,0,1,1,2,2,3,3,5,5,7,7],"right_children":[2,4,6,8,-1,10,-1,12,-1,-1,-1,-1,-1],"split_conditions":[1E0,1E0,2.48E1,2E0,-6.3011487E-4,2.2222223E2,-2.0946262E-3,1.726E1,-8.1462687E-4,1.2780427E-3,2.144385E-2,-1.0253349E-3,-2.2243697E-2],"split_indices":[2,15,1,16,0,20,0,1,0,0,0,0,0],"split_type":[0,0,0,0,0,0,0,0,0,0,0,0,0],"sum_hessian":[1.7307627E1,1.1709409E1,5.5982175E0,1.067546E1,1.0339484E0,4.4059825E0,1.192235E0,9.635798E0,1.0396616E0,1.3844819E0,3.0215006E0,1.0383655E0,8.597433E0],"tree_param":{"num_deleted":"0","num_feature":"23","num_nodes":"13","size_leaf_vector":"1"}},{"base_weights":[-1.2089659E-1,-4.0040213E-1,3.4199303E-1,-4.138275E-1,-6.2719313E-4,4.0252876E-1,-2.0837674E-3,-4.27449E-1,-8.2120503E-4,1.2701458E-3,2.1155586E-2,-1.0205823E-3,-2.1965647E-2],"categories":[],"categories_nodes":[],"categories_segments":[],"categories_sizes":[],"default_left":[0,0,0,0,0,0,0,0,0,0,0,0,0],"id":35,"left_children":[1,3,5,7,-1,9,-1,11,-1,-1,-1,-1,-1],"loss_changes":[4.884191E0,6.0280085E-2,5.305731E-1,4.083085E-2,0E0,4.5342445E-3,0E0,4.1697025E-3,0E0,0E0,0E0,0E0,0E0],"parents":[2147483647,0,0,1,1,2,2,3,3,5,5,7,7],"right_children":[2,4,6,8,-1,10,-1,12,-1,-1,-1,-1,-1],"split_conditions":[1E0,1E0,2.48E1,4.5E1,-6.2719313E-4,2.2222223E2,-2.0837674E-3,1.726E1,-8.2120503E-4,1.2701458E-3,2.1155586E-2,-1.0205823E-3,-2.1965647E-2],"split_indices":[2,15,1,11,0,20,0,1,0,0,0,0,0],"split_type":[0,0,0,0,0,0,0,0,0,0,0,0,0],"sum_hessian":[1.716678E1,1.1545334E1,5.6214466E0,1.0511918E1,1.0334163E0,4.4307737E0,1.1906734E0,9.432559E0,1.0793592E0,1.3855793E0,3.0451941E0,1.0376273E0,8.394931E0],"tree_param":{"num_deleted":"0","num_feature":"23","num_nodes":"13","size_leaf_vector":"1"}},{"base_weights":[-1.1701183E-1,-3.946877E-1,3.3741358E-1,-4.0788943E-1,-5.708676E-4,3.972636E-1,-2.0729771E-3,-4.212965E-1,-8.1726036E-4,1.2622926E-3,2.0871002E-2,-1.015855E-3,-2.1646589E-2],"categories":[],"categories_nodes":[],"categories_segments":[],"categories_sizes":[],"default_left":[0,0,0,0,0,0,0,0,0,0,0,0,0],"id":36,"left_children":[1,3,5,7,-1,9,-1,11,-1,-1,-1,-1,-1],"loss_changes":[4.74268E0,6.1648607E-2,5.1943874E-1,3.816247E-2,0E0,3.009081E-3,0E0,2.127409E-3,0E0,0E0,0E0,0E0,0E0],"parents":[2147483647,0,0,1,1,2,2,3,3,5,5,7,7],"right_children":[2,4,6,8,-1,10,-1,12,-1,-1,-1,-1,-1],"split_conditions":[1E0,1.1324325E1,2.48E1,4.5E1,-5.708676E-4,2.2222223E2,-2.0729771E-3,1.726E1,-8.1726036E-4,1.2622926E-3,2.0871002E-2,-1.015855E-3,-2.1646589E-2],"split_indices":[2,19,1,11,0,20,0,1,0,0,0,0,0],"split_type":[0,0,0,0,0,0,0,0,0,0,0,0,0],"sum_hessian":[1.7031775E1,1.1387835E1,5.643941E0,1.038769E1,1.0001452E0,4.4548206E0,1.1891202E0,9.309063E0,1.0786264E0,1.3866702E0,3.0681505E0,1.036893E0,8.27217E0],"tree_param":{"num_deleted":"0","num_feature":"23","num_nodes":"13","size_leaf_vector":"1"}},{"base_weights":[-1.1326222E-1,-3.8908115E-1,3.3288786E-1,-4.02792E-1,-5.37215E-4,3.9206415E-1,-2.062254E-3,-4.1652077E-1,-6.5334205E-4,1.2544836E-3,2.0590093E-2,-1.0111512E-3,-2.139954E-2],"categories":[],"categories_nodes":[],"categories_segments":[],"categories_sizes":[],"default_left":[0,0,0,0,0,0,0,0,0,0,0,0,0],"id":37,"left_children":[1,3,5,7,-1,9,-1,11,-1,-1,-1,-1,-1],"loss_changes":[4.6053443E0,6.6868305E-2,5.0854254E-1,5.374384E-2,0E0,1.5487671E-3,0E0,7.4505806E-4,0E0,0E0,0E0,0E0,0E0],"parents":[2147483647,0,0,1,1,2,2,3,3,5,5,7,7],"right_children":[2,4,6,8,-1,10,-1,12,-1,-1,-1,-1,-1],"split_conditions":[1E0,1E0,2.48E1,2E0,-5.37215E-4,2.2222223E2,-2.062254E-3,1.726E1,-6.5334205E-4,1.2544836E-3,2.0590093E-2,-1.0111512E-3,-2.139954E-2],"split_indices":[2,15,1,16,0,20,0,1,0,0,0,0,0],"split_type":[0,0,0,0,0,0,0,0,0,0,0,0,0],"sum_hessian":[1.689932E1,1.1233616E1,5.6657043E0,1.0216969E1,1.0166475E0,4.4781284E0,1.1875757E0,9.20515E0,1.0118194E0,1.3877546E0,3.090374E0,1.036162E0,8.168987E0],"tree_param":{"num_deleted":"0","num_feature":"23","num_nodes":"13","size_leaf_vector":"1"}},{"base_weights":[-1.0961739E-1,-3.8354933E-1,3.284159E-1,-3.971016E-1,-5.347587E-4,-1.3875786E-3,3.9790472E-1,-2.0533029E-2,-6.5037183E-4,2.2199532E-2,-3.4555564E-5],"categories":[],"categories_nodes":[],"categories_segments":[],"categories_sizes":[],"default_left":[0,0,0,0,0,0,0,0,0,0,0],"id":38,"left_children":[1,3,5,7,-1,-1,9,-1,-1,-1,-1],"loss_changes":[4.4717007E0,6.405926E-2,4.986663E-1,5.1086664E-2,0E0,0E0,2.5616288E-1,0E0,0E0,0E0,0E0],"parents":[2147483647,0,0,1,1,2,2,3,3,6,6],"right_children":[2,4,6,8,-1,-1,10,-1,-1,-1,-1],"split_conditions":[1E0,1E0,2.3761157E2,2E0,-5.347587E-4,-1.3875786E-3,3.6179776E0,-2.0533029E-2,-6.5037183E-4,2.2199532E-2,-3.4555564E-5],"split_indices":[2,15,20,16,0,0,21,0,0,0,0],"split_type":[0,0,0,0,0,0,0,0,0,0,0],"sum_hessian":[1.6769136E1,1.1082395E1,5.686742E0,1.0066195E1,1.0161998E0,1.9089051E0,3.7778368E0,9.054884E0,1.0113108E0,2.3654714E0,1.4123656E0],"tree_param":{"num_deleted":"0","num_feature":"23","num_nodes":"11","size_leaf_vector":"1"}},{"base_weights":[-1.0510674E-1,-3.775613E-1,3.2488272E-1,-3.9093333E-1,-5.3231436E-4,1.9180834E-2,-2.0817833E-3,-4.0513122E-1,-6.358905E-4,-8.348006E-4,-2.098894E-2],"categories":[],"categories_nodes":[],"categories_segments":[],"categories_sizes":[],"default_left":[0,0,0,0,0,0,0,0,0,0,0],"id":39,"left_children":[1,3,5,7,-1,-1,-1,9,-1,-1,-1],"loss_changes":[4.3462605E0,6.1048746E-2,4.97769E-1,5.5388212E-2,0E0,0E0,0E0,3.7249565E-2,0E0,0E0,0E0],"parents":[2147483647,0,0,1,1,2,2,3,3,7,7],"right_children":[2,4,6,8,-1,-1,-1,10,-1,-1,-1],"split_conditions":[1E0,1E0,2.48E1,4.5E1,-5.3231436E-4,1.9180834E-2,-2.0817833E-3,3.651232E5,-6.358905E-4,-8.348006E-4,-2.098894E-2],"split_indices":[2,15,1,11,0,0,0,22,0,0,0],"split_type":[0,0,0,0,0,0,0,0,0,0,0],"sum_hessian":[1.6628767E1,1.0925392E1,5.7033753E0,9.909637E0,1.0157545E0,4.513577E0,1.1897982E0,8.865196E0,1.0444412E0,1.0997462E0,7.7654505E0],"tree_param":{"num_deleted":"0","num_feature":"23","num_nodes":"11","size_leaf_vector":"1"}},{"base_weights":[-1.0252851E-1,-3.721848E-1,3.188097E-1,-3.8539234E-1,-5.2988174E-4,-1.4825872E-3,3.8877836E-1,-3.994088E-1,-6.329165E-4,2.1778282E-2,-1.2310024E-4,-8.307259E-4,-2.0692317E-2],"categories":[],"categories_nodes":[],"categories_segments":[],"categories_sizes":[],"default_left":[0,0,0,0,0,0,0,0,0,0,0,0,0],"id":40,"left_children":[1,3,5,7,-1,-1,9,11,-1,-1,-1,-1,-1],"loss_changes":[4.200299E0,5.843377E-2,4.989848E-1,5.274129E-2,0E0,0E0,2.6360226E-1,3.47476E-2,0E0,0E0,0E0,0E0,0E0],"parents":[2147483647,0,0,1,1,2,2,3,3,6,6,7,7],"right_children":[2,4,6,8,-1,-1,10,12,-1,-1,-1,-1,-1],"split_conditions":[1E0,1E0,2.3761157E2,4.5E1,-5.2988174E-4,-1.4825872E-3,3.6179776E0,3.651232E5,-6.329165E-4,2.1778282E-2,-1.2310024E-4,-8.307259E-4,-2.0692317E-2],"split_indices":[2,15,20,11,0,0,21,22,0,0,0,0,0],"split_type":[0,0,0,0,0,0,0,0,0,0,0,0,0],"sum_hessian":[1.6525524E1,1.0787885E1,5.7376404E0,9.772573E0,1.0153111E0,1.9229596E0,3.8146806E0,8.728685E0,1.0438886E0,2.395293E0,1.4193876E0,1.0989592E0,7.629726E0],"tree_param":{"num_deleted":"0","num_feature":"23","num_nodes":"13","size_leaf_vector":"1"}},{"base_weights":[-9.884906E-2,-3.6691445E-1,3.153656E-1,-3.799583E-1,-5.2746164E-4,-1.4708603E-3,3.845209E-1,-3.9379403E-1,-6.2995695E-4,2.1536987E-2,-1.2233568E-4,-8.2667376E-4,-2.0401118E-2],"categories":[],"categories_nodes":[],"categories_segments":[],"categories_sizes":[],"default_left":[0,0,0,0,0,0,0,0,0,0,0,0,0],"id":41,"left_children":[1,3,5,7,-1,-1,9,11,-1,-1,-1,-1,-1],"loss_changes":[4.089295E0,5.5925846E-2,4.887246E-1,5.0205708E-2,0E0,0E0,2.57926E-1,3.2358408E-2,0E0,0E0,0E0,0E0,0E0],"parents":[2147483647,0,0,1,1,2,2,3,3,6,6,7,7],"right_children":[2,4,6,8,-1,-1,10,12,-1,-1,-1,-1,-1],"split_conditions":[1E0,1E0,2.3761157E2,4.5E1,-5.2746164E-4,-1.4708603E-3,3.6179776E0,3.651232E5,-6.2995695E-4,2.1536987E-2,-1.2233568E-4,-8.2667376E-4,-2.0401118E-2],"split_indices":[2,15,20,11,0,0,21,22,0,0,0,0,0],"split_type":[0,0,0,0,0,0,0,0,0,0,0,0,0],"sum_hessian":[1.640726E1,1.0654174E1,5.7530875E0,9.639304E0,1.0148702E0,1.9211498E0,3.8319376E0,8.595965E0,1.0433385E0,2.412621E0,1.4193168E0,1.0981767E0,7.4977884E0],"tree_param":{"num_deleted":"0","num_feature":"23","num_nodes":"13","size_leaf_vector":"1"}},{"base_weights":[-9.530333E-2,-3.6174795E-1,3.1195086E-1,-3.74629E-1,-5.2505365E-4,3.7027252E-1,-2.1302227E-3,-4.0084088E-1,-2.9303093E-2,1.1545264E-3,1.9484332E-2,-6.105585E-4,-2.0921452E-2,4.013885E-3,-5.560507E-3],"categories":[],"categories_nodes":[],"categories_segments":[],"categories_sizes":[],"default_left":[0,0,0,0,0,0,0,0,0,0,0,0,0,0,0],"id":42,"left_children":[1,3,5,7,-1,9,-1,11,13,-1,-1,-1,-1,-1,-1],"loss_changes":[3.9814527E0,5.3519726E-2,4.8380685E-1,5.9136152E-2,0E0,8.241773E-3,0E0,6.746006E-2,1.9846408E-1,0E0,0E0,0E0,0E0,0E0,0E0],"parents":[2147483647,0,0,1,1,2,2,3,3,5,5,7,7,8,8],"right_children":[2,4,6,8,-1,10,-1,12,14,-1,-1,-1,-1,-1,-1],"split_conditions":[1E0,1E0,2.48E1,4E0,-5.2505365E-4,2.2222223E2,-2.1302227E-3,3.670062E5,5.04E0,1.1545264E-3,1.9484332E-2,-6.105585E-4,-2.0921452E-2,4.013885E-3,-5.560507E-3],"split_indices":[2,15,1,21,0,20,0,22,21,0,0,0,0,0,0],"split_type":[0,0,0,0,0,0,0,0,0,0,0,0,0,0,0],"sum_hessian":[1.6292128E1,1.0524138E1,5.7679887E0,9.509707E0,1.0144315E0,4.572547E0,1.1954417E0,7.344605E0,2.1651022E0,1.4015938E0,3.1709533E0,1.0515827E0,6.293022E0,1.0111903E0,1.1539118E0],"tree_param":{"num_deleted":"0","num_feature":"23","num_nodes":"15","size_leaf_vector":"1"}},{"base_weights":[-9.286731E-2,-3.5720307E-1,3.077292E-1,-3.6994123E-1,-5.2265724E-4,3.654191E-1,-2.1191563E-3,-3.958218E-1,-2.911638E-2,1.147328E-3,1.9222023E-2,-6.076843E-4,-2.0661525E-2,3.9942227E-3,-5.534551E-3],"categories":[],"categories_nodes":[],"categories_segments":[],"categories_sizes":[],"default_left":[0,0,0,0,0,0,0,0,0,0,0,0,0,0,0],"id":43,"left_children":[1,3,5,7,-1,9,-1,11,13,-1,-1,-1,-1,-1,-1],"loss_changes":[3.8731725E0,5.1480055E-2,4.7371972E-1,5.58393E-2,0E0,6.841302E-3,0E0,6.488109E-2,1.9657381E-1,0E0,0E0,0E0,0E0,0E0,0E0],"parents":[2147483647,0,0,1,1,2,2,3,3,5,5,7,7,8,8],"right_children":[2,4,6,8,-1,10,-1,12,14,-1,-1,-1,-1,-1,-1],"split_conditions":[1E0,1E0,2.48E1,4E0,-5.2265724E-4,2.2222223E2,-2.1191563E-3,3.670062E5,5.04E0,1.147328E-3,1.9222023E-2,-6.076843E-4,-2.0661525E-2,3.9942227E-3,-5.534551E-3],"split_indices":[2,15,1,21,0,20,0,22,21,0,0,0,0,0,0],"split_type":[0,0,0,0,0,0,0,0,0,0,0,0,0,0,0],"sum_hessian":[1.6196074E1,1.0410121E1,5.7859526E0,9.396126E0,1.0139947E0,4.592093E0,1.1938592E0,7.2332277E0,2.1628983E0,1.4025875E0,3.1895056E0,1.0510337E0,6.1821938E0,1.0145035E0,1.1483948E0],"tree_param":{"num_deleted":"0","num_feature":"23","num_nodes":"15","size_leaf_vector":"1"}},{"base_weights":[-9.0538085E-2,-3.5274932E-1,3.0356044E-1,-3.65602E-1,-5.087691E-4,3.606295E-1,-2.1081592E-3,-3.9638272E-1,-1.8442918E-2,1.1401705E-3,1.8963266E-2,-4.3793462E-4,-2.0761115E-2,-5.112853E-3,4.1181026E-3],"categories":[],"categories_nodes":[],"categories_segments":[],"categories_sizes":[],"default_left":[0,0,0,0,0,0,0,0,0,0,0,0,0,0,0],"id":44,"left_children":[1,3,5,7,-1,9,-1,11,13,-1,-1,-1,-1,-1,-1],"loss_changes":[3.7681446E0,5.2175283E-2,4.6385264E-1,1.32905E-1,0E0,5.5003166E-3,0E0,8.938837E-2,1.860986E-1,0E0,0E0,0E0,0E0,0E0,0E0],"parents":[2147483647,0,0,1,1,2,2,3,3,5,5,7,7,8,8],"right_children":[2,4,6,8,-1,10,-1,12,14,-1,-1,-1,-1,-1,-1],"split_conditions":[1E0,4.5E1,2.48E1,2.621E1,-5.087691E-4,2.2222223E2,-2.1081592E-3,3.651232E5,2.238806E0,1.1401705E-3,1.8963266E-2,-4.3793462E-4,-2.0761115E-2,-5.112853E-3,4.1181026E-3],"split_indices":[2,11,1,1,0,20,0,22,21,0,0,0,0,0,0],"split_type":[0,0,0,0,0,0,0,0,0,0,0,0,0,0,0],"sum_hessian":[1.6102324E1,1.0299091E1,5.803232E0,9.278763E0,1.0203278E0,4.610947E0,1.1922853E0,7.2206483E0,2.058115E0,1.4035752E0,3.207372E0,1.0136615E0,6.206987E0,1.04511E0,1.0130051E0],"tree_param":{"num_deleted":"0","num_feature":"23","num_nodes":"15","size_leaf_vector":"1"}},{"base_weights":[-8.818079E-2,-3.4824154E-1,2.9944435E-1,-3.6111924E-1,-4.646002E-4,3.5590333E-1,-2.0972306E-3,-3.872332E-1,-2.7023314E-2,1.1330539E-3,1.870804E-2,-6.015624E-4,-2.0216918E-2,4.0379884E-3,-5.4654563E-3],"categories":[],"categories_nodes":[],"categories_segments":[],"categories_sizes":[],"default_left":[0,0,0,0,0,0,0,0,0,0,0,0,0,0,0],"id":45,"left_children":[1,3,5,7,-1,9,-1,11,13,-1,-1,-1,-1,-1,-1],"loss_changes":[3.664636E0,5.4567575E-2,4.5420122E-1,6.274533E-2,0E0,4.2170286E-3,0E0,6.0744762E-2,1.959576E-1,0E0,0E0,0E0,0E0,0E0,0E0],"parents":[2147483647,0,0,1,1,2,2,3,3,5,5,7,7,8,8],"right_children":[2,4,6,8,-1,10,-1,12,14,-1,-1,-1,-1,-1,-1],"split_conditions":[1E0,1E0,2.48E1,4E0,-4.646002E-4,2.2222223E2,-2.0972306E-3,3.670062E5,5.04E0,1.1330539E-3,1.870804E-2,-6.015624E-4,-2.0216918E-2,4.0379884E-3,-5.4654563E-3],"split_indices":[2,15,1,21,0,20,0,22,21,0,0,0,0,0,0],"split_type":[0,0,0,0,0,0,0,0,0,0,0,0,0,0,0],"sum_hessian":[1.600881E1,1.01889715E1,5.819839E0,9.185902E0,1.0030698E0,4.629119E0,1.1907201E0,7.0447803E0,2.1411216E0,1.4045569E0,3.224562E0,1.0498564E0,5.994924E0,1.0072365E0,1.1338853E0],"tree_param":{"num_deleted":"0","num_feature":"23","num_nodes":"15","size_leaf_vector":"1"}},{"base_weights":[-8.602585E-2,-3.4393507E-1,2.953807E-1,-3.569338E-1,-4.5039985E-4,-1.4677496E-3,3.6128742E-1,-3.8796073E-1,-1.651619E-2,2.0599507E-2,-4.797916E-4,-4.2957533E-4,-2.0327987E-2,-5.0297542E-3,4.135153E-3],"categories":[],"categories_nodes":[],"categories_segments":[],"categories_sizes":[],"default_left":[0,0,0,0,0,0,0,0,0,0,0,0,0,0,0],"id":46,"left_children":[1,3,5,7,-1,-1,9,11,13,-1,-1,-1,-1,-1,-1],"loss_changes":[3.5655122E0,5.528164E-2,4.4497716E-1,1.3738394E-1,0E0,0E0,3.012128E-1,8.527422E-2,1.8361826E-1,0E0,0E0,0E0,0E0,0E0,0E0],"parents":[2147483647,0,0,1,1,2,2,3,3,6,6,7,7,8,8],"right_children":[2,4,6,8,-1,-1,10,12,14,-1,-1,-1,-1,-1,-1],"split_conditions":[1E0,4.5E1,2.3761157E2,2.621E1,-4.5039985E-4,-1.4677496E-3,3.6179776E0,3.651232E5,2.238806E0,2.0599507E-2,-4.797916E-4,-4.2957533E-4,-2.0327987E-2,-5.0297542E-3,4.135153E-3],"split_indices":[2,11,20,1,0,0,21,22,21,0,0,0,0,0,0],"split_type":[0,0,0,0,0,0,0,0,0,0,0,0,0,0,0],"sum_hessian":[1.5918865E1,1.0083083E1,5.8357816E0,9.073862E0,1.0092213E0,1.9202574E0,3.915524E0,7.035966E0,2.0378964E0,2.4695635E0,1.4459605E0,1.0120586E0,6.023907E0,1.0280532E0,1.0098432E0],"tree_param":{"num_deleted":"0","num_feature":"23","num_nodes":"15","size_leaf_vector":"1"}},{"base_weights":[-8.340159E-2,-3.395742E-1,2.9215357E-1,-3.5242978E-1,-4.4835126E-4,1.7410973E-2,-2.1143241E-3,-3.8314545E-1,-1.6436206E-2,-4.2761533E-4,-2.0078886E-2,-5.0083627E-3,4.1148164E-3],"categories":[],"categories_nodes":[],"categories_segments":[],"categories_sizes":[],"default_left":[0,0,0,0,0,0,0,0,0,0,0,0,0],"id":47,"left_children":[1,3,5,7,-1,-1,-1,9,11,-1,-1,-1,-1],"loss_changes":[3.4767265E0,5.3307056E-2,4.444121E-1,1.3279223E-1,0E0,0E0,0E0,8.256507E-2,1.8194416E-1,0E0,0E0,0E0,0E0],"parents":[2147483647,0,0,1,1,2,2,3,3,7,7,8,8],"right_children":[2,4,6,8,-1,-1,-1,10,12,-1,-1,-1,-1],"split_conditions":[1E0,4.5E1,2.48E1,2.621E1,-4.4835126E-4,1.7410973E-2,-2.1143241E-3,3.651232E5,2.238806E0,-4.2761533E-4,-2.0078886E-2,-5.0083627E-3,4.1148164E-3],"split_indices":[2,11,1,1,0,0,0,22,21,0,0,0,0],"split_type":[0,0,0,0,0,0,0,0,0,0,0,0,0],"sum_hessian":[1.5826082E1,9.977995E0,5.8480873E0,8.969154E0,1.0088408E0,4.6556034E0,1.1924839E0,6.932084E0,2.03707E0,1.0116885E0,5.920396E0,1.0236448E0,1.0134251E0],"tree_param":{"num_deleted":"0","num_feature":"23","num_nodes":"13","size_leaf_vector":"1"}},{"base_weights":[-8.205437E-2,-3.3530122E-1,2.8667316E-1,-3.4801504E-1,-4.4631257E-4,-1.5528573E-3,3.5298756E-1,-3.7842026E-1,-1.6359339E-2,2.0212715E-2,-5.592488E-4,-4.2566546E-4,-1.9834315E-2,4.1150055E-3,-4.996697E-3],"categories":[],"categories_nodes":[],"categories_segments":[],"categories_sizes":[],"default_left":[0,0,0,0,0,0,0,0,0,0,0,0,0,0,0],"id":48,"left_children":[1,3,5,7,-1,-1,9,11,13,-1,-1,-1,-1,-1,-1],"loss_changes":[3.365901E0,5.1409245E-2,4.4414067E-1,1.2835073E-1,0E0,0E0,3.055396E-1,7.995081E-2,1.8148988E-1,0E0,0E0,0E0,0E0,0E0,0E0],"parents":[2147483647,0,0,1,1,2,2,3,3,6,6,7,7,8,8],"right_children":[2,4,6,8,-1,-1,10,12,14,-1,-1,-1,-1,-1,-1],"split_conditions":[1E0,4.5E1,2.3761157E2,2.621E1,-4.4631257E-4,-1.5528573E-3,3.6179776E0,3.651232E5,3.084E1,2.0212715E-2,-5.592488E-4,-4.2566546E-4,-1.9834315E-2,4.1150055E-3,-4.996697E-3],"split_indices":[2,11,20,1,0,0,21,22,1,0,0,0,0,0,0],"split_type":[0,0,0,0,0,0,0,0,0,0,0,0,0,0,0],"sum_hessian":[1.5751833E1,9.875645E0,5.8761888E0,8.867183E0,1.008462E0,1.932713E0,3.9434757E0,6.830912E0,2.0362706E0,2.4920318E0,1.4514438E0,1.0113204E0,5.8195915E0,1.0037936E0,1.0324769E0],"tree_param":{"num_deleted":"0","num_feature":"23","num_nodes":"15","size_leaf_vector":"1"}},{"base_weights":[-7.962431E-2,-3.3111295E-1,2.8353196E-1,-3.4368655E-1,-4.4428356E-4,-1.5405322E-3,3.490957E-1,-3.7378317E-1,-1.6276818E-2,1.9989124E-2,-5.557206E-4,-4.2372543E-4,-1.9594183E-2,-4.9819695E-3,4.093395E-3],"categories":[],"categories_nodes":[],"categories_segments":[],"categories_sizes":[],"default_left":[0,0,0,0,0,0,0,0,0,0,0,0,0,0,0],"id":49,"left_children":[1,3,5,7,-1,-1,9,11,13,-1,-1,-1,-1,-1,-1],"loss_changes":[3.2826111E0,4.9583197E-2,4.349892E-1,1.24094486E-1,0E0,0E0,2.9925108E-1,7.742858E-2,1.800401E-1,0E0,0E0,0E0,0E0,0E0,0E0],"parents":[2147483647,0,0,1,1,2,2,3,3,6,6,7,7,8,8],"right_children":[2,4,6,8,-1,-1,10,12,14,-1,-1,-1,-1,-1,-1],"split_conditions":[1E0,4.5E1,2.3761157E2,2.621E1,-4.4428356E-4,-1.5405322E-3,3.6179776E0,3.651232E5,2.238806E0,1.9989124E-2,-5.557206E-4,-4.2372543E-4,-1.9594183E-2,-4.9819695E-3,4.093395E-3],"split_indices":[2,11,20,1,0,0,21,22,21,0,0,0,0,0,0],"split_type":[0,0,0,0,0,0,0,0,0,0,0,0,0,0,0],"sum_hessian":[1.5663071E1,9.775685E0,5.887385E0,8.7676E0,1.0080851E0,1.930818E0,3.956567E0,6.7323647E0,2.0352354E0,2.5054264E0,1.4511408E0,1.0109539E0,5.7214108E0,1.018146E0,1.0170894E0],"tree_param":{"num_deleted":"0","num_feature":"23","num_nodes":"15","size_leaf_vector":"1"}},{"base_weights":[-7.729333E-2,-3.270086E-1,2.804209E-1,-3.3944315E-1,-4.4226536E-4,3.361345E-1,-2.1581217E-3,-3.6923224E-1,-1.6203823E-2,1.0454752E-3,1.770047E-2,-4.217952E-4,-1.9358395E-2,4.093461E-3,-4.97044E-3],"categories":[],"categories_nodes":[],"categories_segments":[],"categories_sizes":[],"default_left":[0,0,0,0,0,0,0,0,0,0,0,0,0,0,0],"id":50,"left_children":[1,3,5,7,-1,9,-1,11,13,-1,-1,-1,-1,-1,-1],"loss_changes":[3.2016745E0,4.782772E-2,4.3169403E-1,1.19951725E-1,0E0,8.811712E-3,0E0,7.49948E-2,1.7958847E-1,0E0,0E0,0E0,0E0,0E0,0E0],"parents":[2147483647,0,0,1,1,2,2,3,3,5,5,7,7,8,8],"right_children":[2,4,6,8,-1,10,-1,12,14,-1,-1,-1,-1,-1,-1],"split_conditions":[1E0,4.5E1,2.48E1,2.621E1,-4.4226536E-4,2.2222223E2,-2.1581217E-3,3.651232E5,3.084E1,1.0454752E-3,1.770047E-2,-4.217952E-4,-1.9358395E-2,4.093461E-3,-4.97044E-3],"split_indices":[2,11,1,1,0,20,0,22,1,0,0,0,0,0,0],"split_type":[0,0,0,0,0,0,0,0,0,0,0,0,0,0,0],"sum_hessian":[1.5576608E1,9.67854E0,5.898068E0,8.67083E0,1.0077102E0,4.7008157E0,1.1972524E0,6.63636E0,2.0344698E0,1.4166042E0,3.2842114E0,1.0105894E0,5.6257706E0,1.0074887E0,1.026981E0],"tree_param":{"num_deleted":"0","num_feature":"23","num_nodes":"15","size_leaf_vector":"1"}},{"base_weights":[-7.547482E-2,-3.229849E-1,2.76597E-1,-3.3528197E-1,-4.4025626E-4,3.3173817E-1,-2.1468978E-3,-3.6476567E-1,-1.6125187E-2,1.0389051E-3,1.7463E-2,-4.1987348E-4,-1.912686E-2,-4.9559064E-3,4.0719416E-3],"categories":[],"categories_nodes":[],"categories_segments":[],"categories_sizes":[],"default_left":[0,0,0,0,0,0,0,0,0,0,0,0,0,0,0],"id":51,"left_children":[1,3,5,7,-1,9,-1,11,13,-1,-1,-1,-1,-1,-1],"loss_changes":[3.1150215E0,4.6139E-2,4.2278993E-1,1.1598253E-1,0E0,7.6094866E-3,0E0,7.2645664E-2,1.7815717E-1,0E0,0E0,0E0,0E0,0E0,0E0],"parents":[2147483647,0,0,1,1,2,2,3,3,5,5,7,7,8,8],"right_children":[2,4,6,8,-1,10,-1,12,14,-1,-1,-1,-1,-1,-1],"split_conditions":[1E0,4.5E1,2.48E1,2.621E1,-4.4025626E-4,2.2222223E2,-2.1468978E-3,3.651232E5,2.238806E0,1.0389051E-3,1.7463E-2,-4.1987348E-4,-1.912686E-2,-4.9559064E-3,4.0719416E-3],"split_indices":[2,11,1,1,0,20,0,22,21,0,0,0,0,0,0],"split_type":[0,0,0,0,0,0,0,0,0,0,0,0,0,0,0],"sum_hessian":[1.5494848E1,9.583626E0,5.911223E0,8.576288E0,1.007337E0,4.7155666E0,1.1956562E0,6.542819E0,2.0334697E0,1.4175055E0,3.2980611E0,1.0102265E0,5.5325923E0,1.0127133E0,1.0207564E0],"tree_param":{"num_deleted":"0","num_feature":"23","num_nodes":"15","size_leaf_vector":"1"}},{"base_weights":[-7.374245E-2,-3.1904134E-1,2.7282333E-1,-3.312022E-1,-4.382564E-4,3.2658464E-1,-2.2800143E-3,-3.603816E-1,-1.6055971E-2,-8.1866056E-5,1.8434266E-2,-4.179616E-4,-1.8899493E-2,4.071887E-3,-4.9445103E-3],"categories":[],"categories_nodes":[],"categories_segments":[],"categories_sizes":[],"default_left":[0,0,0,0,0,0,0,0,0,0,0,0,0,0,0],"id":52,"left_children":[1,3,5,7,-1,9,-1,11,13,-1,-1,-1,-1,-1,-1],"loss_changes":[3.0310166E0,4.4515252E-2,4.2152047E-1,1.1211562E-1,0E0,2.1122313E-1,0E0,7.037854E-2,1.7770815E-1,0E0,0E0,0E0,0E0,0E0,0E0],"parents":[2147483647,0,0,1,1,2,2,3,3,5,5,7,7,8,8],"right_children":[2,4,6,8,-1,10,-1,12,14,-1,-1,-1,-1,-1,-1],"split_conditions":[1E0,4.5E1,2E0,2.621E1,-4.382564E-4,2.3761157E2,-2.2800143E-3,3.651232E5,3.084E1,-8.1866056E-5,1.8434266E-2,-4.179616E-4,-1.8899493E-2,4.071887E-3,-4.9445103E-3],"split_indices":[2,11,12,1,0,20,0,22,1,0,0,0,0,0,0],"split_type":[0,0,0,0,0,0,0,0,0,0,0,0,0,0,0],"sum_hessian":[1.5415143E1,9.491367E0,5.923775E0,8.484402E0,1.0069655E0,4.848826E0,1.0749493E0,6.451665E0,2.032737E0,1.6438975E0,3.2049286E0,1.0098655E0,5.441799E0,1.0111862E0,1.0215508E0],"tree_param":{"num_deleted":"0","num_feature":"23","num_nodes":"15","size_leaf_vector":"1"}},{"base_weights":[-7.210389E-2,-3.151747E-1,2.690341E-1,-3.272009E-1,-4.3626712E-4,3.2228246E-1,-2.2691838E-3,-3.560783E-1,-1.5981147E-2,-8.128942E-5,1.8189413E-2,-4.1605844E-4,-1.8676206E-2,-4.9301675E-3,4.050459E-3],"categories":[],"categories_nodes":[],"categories_segments":[],"categories_sizes":[],"default_left":[0,0,0,0,0,0,0,0,0,0,0,0,0,0,0],"id":53,"left_children":[1,3,5,7,-1,9,-1,11,13,-1,-1,-1,-1,-1,-1],"loss_changes":[2.9490325E0,4.295206E-2,4.1309392E-1,1.0841119E-1,0E0,2.0574307E-1,0E0,6.81901E-2,1.76295E-1,0E0,0E0,0E0,0E0,0E0,0E0],"parents":[2147483647,0,0,1,1,2,2,3,3,5,5,7,7,8,8],"right_children":[2,4,6,8,-1,10,-1,12,14,-1,-1,-1,-1,-1,-1],"split_conditions":[1E0,4.5E1,2E0,2.621E1,-4.3626712E-4,2.3761157E2,-2.2691838E-3,3.651232E5,2.238806E0,-8.128942E-5,1.8189413E-2,-4.1605844E-4,-1.8676206E-2,-4.9301675E-3,4.050459E-3],"split_indices":[2,11,12,1,0,20,0,22,21,0,0,0,0,0,0],"split_type":[0,0,0,0,0,0,0,0,0,0,0,0,0,0,0],"sum_hessian":[1.5338736E1,9.401192E0,5.9375443E0,8.394595E0,1.006596E0,4.863713E0,1.0738318E0,6.362824E0,2.0317717E0,1.6438129E0,3.2198997E0,1.0095061E0,5.3533177E0,1.0073458E0,1.0244259E0],"tree_param":{"num_deleted":"0","num_feature":"23","num_nodes":"15","size_leaf_vector":"1"}},{"base_weights":[-7.054721E-2,-3.1548804E-1,2.616983E-1,2.04086E-3,-3.6479232E-1,-6.0061514E-3,3.690286E-1,-1.9001542E-2,-5.115871E-4,2.2130242E-2,-1.5006175E-3],"categories":[],"categories_nodes":[],"categories_segments":[],"categories_sizes":[],"default_left":[0,0,0,0,0,0,0,0,0,0,0],"id":54,"left_children":[1,3,5,-1,7,-1,9,-1,-1,-1,-1],"loss_changes":[2.8816423E0,4.8402798E-1,1.1066619E0,0E0,5.7096243E-2,0E0,5.759144E-1,0E0,0E0,0E0,0E0],"parents":[2147483647,0,0,1,1,2,2,4,4,6,6],"right_children":[2,4,6,-1,8,-1,10,-1,-1,-1,-1],"split_conditions":[2.3761157E2,1.859E1,1.7325581E0,2.04086E-3,3.5E1,-6.0061514E-3,4.0684934E0,-1.9001542E-2,-5.115871E-4,2.2130242E-2,-1.5006175E-3],"split_indices":[20,1,21,0,11,0,21,0,0,0,0],"split_type":[0,0,0,0,0,0,0,0,0,0,0],"sum_hessian":[1.5264224E1,9.076869E0,6.187356E0,1.3125898E0,7.764279E0,1.0961083E0,5.0912476E0,6.7555733E0,1.0087056E0,3.3768919E0,1.7143556E0],"tree_param":{"num_deleted":"0","num_feature":"23","num_nodes":"11","size_leaf_vector":"1"}},{"base_weights":[-6.8427324E-2,-3.0807626E-1,2.635085E-1,-3.197641E-1,-4.4209027E-4,1.5897244E-2,-2.177414E-3,-3.4891775E-1,-1.4219942E-2,-5.5978436E-4,-1.8235726E-2,4.062583E-3,-4.8434315E-3],"categories":[],"categories_nodes":[],"categories_segments":[],"categories_sizes":[],"default_left":[0,0,0,0,0,0,0,0,0,0,0,0,0],"id":55,"left_children":[1,3,5,7,-1,-1,-1,9,11,-1,-1,-1,-1],"loss_changes":[2.814873E0,3.899336E-2,4.0502024E-1,1.1273515E-1,0E0,0E0,0E0,4.5665145E-2,1.7349252E-1,0E0,0E0,0E0,0E0],"parents":[2147483647,0,0,1,1,2,2,3,3,7,7,8,8],"right_children":[2,4,6,8,-1,-1,-1,10,12,-1,-1,-1,-1],"split_conditions":[1E0,4.5E1,2.48E1,2.621E1,-4.4209027E-4,1.5897244E-2,-2.177414E-3,3.678038E5,3.084E1,-5.5978436E-4,-1.8235726E-2,4.062583E-3,-4.8434315E-3],"split_indices":[2,11,1,1,0,0,0,22,1,0,0,0,0],"split_type":[0,0,0,0,0,0,0,0,0,0,0,0,0],"sum_hessian":[1.5180571E1,9.233226E0,5.9473453E0,8.225858E0,1.0073675E0,4.750551E0,1.1967939E0,6.2134476E0,2.0124106E0,1.0411811E0,5.1722665E0,1.0121995E0,1.0002111E0],"tree_param":{"num_deleted":"0","num_feature":"23","num_nodes":"13","size_leaf_vector":"1"}},{"base_weights":[-6.770814E-2,-3.086753E-1,2.5544935E-1,2.053724E-3,-3.579977E-1,-5.96114E-3,3.611953E-1,-1.864581E-2,-5.1543105E-4,2.1700786E-2,-1.5271873E-3],"categories":[],"categories_nodes":[],"categories_segments":[],"categories_sizes":[],"default_left":[0,0,0,0,0,0,0,0,0,0,0],"id":56,"left_children":[1,3,5,-1,7,-1,9,-1,-1,-1,-1],"loss_changes":[2.7446163E0,4.7339416E-1,1.0725454E0,0E0,5.2896976E-2,0E0,5.6380904E-1,0E0,0E0,0E0,0E0],"parents":[2147483647,0,0,1,1,2,2,4,4,6,6],"right_children":[2,4,6,-1,8,-1,10,-1,-1,-1,-1],"split_conditions":[2.3761157E2,1.859E1,1.7325581E0,2.053724E-3,3.5E1,-5.96114E-3,4.0684934E0,-1.864581E-2,-5.1543105E-4,2.1700786E-2,-1.5271873E-3],"split_indices":[20,1,21,0,11,0,21,0,0,0,0],"split_type":[0,0,0,0,0,0,0,0,0,0,0],"sum_hessian":[1.5120056E1,8.918209E0,6.2018466E0,1.308902E0,7.6093073E0,1.0845785E0,5.117268E0,6.6005287E0,1.0087786E0,3.4050894E0,1.7121787E0],"tree_param":{"num_deleted":"0","num_feature":"23","num_nodes":"11","size_leaf_vector":"1"}},{"base_weights":[-6.573683E-2,-3.0125305E-1,2.567885E-1,-3.126063E-1,-4.4784244E-4,3.100805E-1,-2.3404004E-3,-3.4202713E-1,-6.270121E-4,-8.581825E-6,1.7419502E-2,-4.9045886E-4,-1.7909994E-2],"categories":[],"categories_nodes":[],"categories_segments":[],"categories_sizes":[],"default_left":[0,0,0,0,0,0,0,0,0,0,0,0,0],"id":57,"left_children":[1,3,5,7,-1,9,-1,11,-1,-1,-1,-1,-1],"loss_changes":[2.6755726E0,3.5295486E-2,4.0346122E-1,1.1659253E-1,0E0,1.7761612E-1,0E0,5.121386E-2,0E0,0E0,0E0,0E0,0E0],"parents":[2147483647,0,0,1,1,2,2,3,3,5,5,7,7],"right_children":[2,4,6,8,-1,10,-1,12,-1,-1,-1,-1,-1],"split_conditions":[1E0,4.5E1,2E0,2.621E1,-4.4784244E-4,2.3761157E2,-2.3404004E-3,3.678038E5,-6.270121E-4,-8.581825E-6,1.7419502E-2,-4.9045886E-4,-1.7909994E-2],"split_indices":[2,11,12,1,0,20,0,22,0,0,0,0,0],"split_type":[0,0,0,0,0,0,0,0,0,0,0,0,0],"sum_hessian":[1.5039375E1,9.073343E0,5.966032E0,8.065229E0,1.0081135E0,4.89348E0,1.0725522E0,6.071534E0,1.9936957E0,1.6319809E0,3.261499E0,1.0276184E0,5.0439157E0],"tree_param":{"num_deleted":"0","num_feature":"23","num_nodes":"13","size_leaf_vector":"1"}},{"base_weights":[-6.441918E-2,-3.012062E-1,2.4917245E-1,2.0990516E-3,-3.5083807E-1,-5.9170104E-3,3.533622E-1,-1.892293E-2,-2.503847E-2,2.1276945E-2,-1.5593459E-3,-5.4136403E-3,4.0746373E-3],"categories":[],"categories_nodes":[],"categories_segments":[],"categories_sizes":[],"default_left":[0,0,0,0,0,0,0,0,0,0,0,0,0],"id":58,"left_children":[1,3,5,-1,7,-1,9,-1,11,-1,-1,-1,-1],"loss_changes":[2.6046834E0,4.6673572E-1,1.0390822E0,0E0,6.2303305E-2,0E0,5.5300486E-1,0E0,1.9528216E-1,0E0,0E0,0E0,0E0],"parents":[2147483647,0,0,1,1,2,2,4,4,6,6,8,8],"right_children":[2,4,6,-1,8,-1,10,-1,12,-1,-1,-1,-1],"split_conditions":[2.3761157E2,1.859E1,1.7325581E0,2.0990516E-3,4.1044774E0,-5.9170104E-3,4.0684934E0,-1.892293E-2,2.428E1,2.1276945E-2,-1.5593459E-3,-5.4136403E-3,4.0746373E-3],"split_indices":[20,1,21,0,21,0,21,0,1,0,0,0,0],"split_type":[0,0,0,0,0,0,0,0,0,0,0,0,0],"sum_hessian":[1.4970373E1,8.754769E0,6.215604E0,1.3009144E0,7.453855E0,1.0729167E0,5.1426873E0,5.3813367E0,2.0725183E0,3.4325147E0,1.7101725E0,1.0717013E0,1.0008172E0],"tree_param":{"num_deleted":"0","num_feature":"23","num_nodes":"13","size_leaf_vector":"1"}},{"base_weights":[-6.315722E-2,-2.949261E-1,2.5093773E-1,-3.0560386E-1,-4.8051085E-4,3.0515283E-1,-2.550123E-3,-3.2900506E-1,-2.2795836E-2,1.768168E-2,-1.567901E-3,-4.112749E-4,-1.7273119E-2,-5.334533E-3,4.120204E-3],"categories":[],"categories_nodes":[],"categories_segments":[],"categories_sizes":[],"default_left":[0,0,0,0,0,0,0,0,0,0,0,0,0,0,0],"id":59,"left_children":[1,3,5,7,-1,9,-1,11,13,-1,-1,-1,-1,-1,-1],"loss_changes":[2.5530539E0,2.8293371E-2,4.17176E-1,4.35946E-2,0E0,3.5523248E-1,0E0,5.5025935E-2,1.9483167E-1,0E0,0E0,0E0,0E0,0E0,0E0],"parents":[2147483647,0,0,1,1,2,2,3,3,5,5,7,7,8,8],"right_children":[2,4,6,8,-1,10,-1,12,14,-1,-1,-1,-1,-1,-1],"split_conditions":[1E0,1.03529415E1,2E0,4E0,-4.8051085E-4,2.48E1,-2.550123E-3,1.4957507E0,1.487548E2,1.768168E-2,-1.567901E-3,-4.112749E-4,-1.7273119E-2,-5.334533E-3,4.120204E-3],"split_indices":[2,19,18,21,0,1,0,19,20,0,0,0,0,0,0],"split_type":[0,0,0,0,0,0,0,0,0,0,0,0,0,0,0],"sum_hessian":[1.4904358E1,8.927266E0,5.9770913E0,7.919803E0,1.0074631E0,4.9770355E0,1.0000557E0,5.8058786E0,2.1139247E0,3.905537E0,1.0714989E0,1.0152422E0,4.7906365E0,1.097214E0,1.0167106E0],"tree_param":{"num_deleted":"0","num_feature":"23","num_nodes":"15","size_leaf_vector":"1"}},{"base_weights":[-6.250468E-2,-2.9533416E-1,2.4309614E-1,2.091391E-3,-3.4480208E-1,-5.855923E-3,3.4550935E-1,-1.8587818E-2,-2.5156561E-2,2.0885883E-2,-1.6198963E-3,-5.3900345E-3,4.0398524E-3],"categories":[],"categories_nodes":[],"categories_segments":[],"categories_sizes":[],"default_left":[0,0,0,0,0,0,0,0,0,0,0,0,0],"id":60,"left_children":[1,3,5,-1,7,-1,9,-1,11,-1,-1,-1,-1],"loss_changes":[2.486092E0,4.5476687E-1,1.0034206E0,0E0,5.569458E-2,0E0,5.492728E-1,0E0,1.9281328E-1,0E0,0E0,0E0,0E0],"parents":[2147483647,0,0,1,1,2,2,4,4,6,6,8,8],"right_children":[2,4,6,-1,8,-1,10,-1,12,-1,-1,-1,-1],"split_conditions":[2.3761157E2,1.859E1,1.7325581E0,2.091391E-3,4.1044774E0,-5.855923E-3,4.0684934E0,-1.8587818E-2,2.428E1,2.0885883E-2,-1.6198963E-3,-5.3900345E-3,4.0398524E-3],"split_indices":[20,1,21,0,21,0,21,0,1,0,0,0,0],"split_type":[0,0,0,0,0,0,0,0,0,0,0,0,0],"sum_hessian":[1.4849961E1,8.61918E0,6.230782E0,1.3004014E0,7.318778E0,1.061462E0,5.16932E0,5.2461257E0,2.0726526E0,3.455602E0,1.7137182E0,1.0664718E0,1.0061806E0],"tree_param":{"num_deleted":"0","num_feature":"23","num_nodes":"13","size_leaf_vector":"1"}},{"base_weights":[-6.136473E-2,-2.8894523E-1,2.4433707E-1,-2.9923633E-1,-4.9319863E-4,2.9737887E-1,-2.3953111E-3,-3.2202113E-1,-2.2719057E-2,-2.8039933E-6,1.669422E-2,-3.3676508E-4,-1.6946768E-2,-5.300828E-3,4.0849615E-3],"categories":[],"categories_nodes":[],"categories_segments":[],"categories_sizes":[],"default_left":[0,0,0,0,0,0,0,0,0,0,0,0,0,0,0],"id":61,"left_children":[1,3,5,7,-1,9,-1,11,13,-1,-1,-1,-1,-1,-1],"loss_changes":[2.4304256E0,2.4450302E-2,3.9041704E-1,3.8868785E-2,0E0,1.6225481E-1,0E0,6.0729504E-2,1.9196825E-1,0E0,0E0,0E0,0E0,0E0,0E0],"parents":[2147483647,0,0,1,1,2,2,3,3,5,5,7,7,8,8],"right_children":[2,4,6,8,-1,10,-1,12,14,-1,-1,-1,-1,-1,-1],"split_conditions":[1E0,1.03529415E1,2E0,4E0,-4.9319863E-4,2.3761157E2,-2.3953111E-3,1.4957507E0,1.487548E2,-2.8039933E-6,1.669422E-2,-3.3676508E-4,-1.6946768E-2,-5.300828E-3,4.0849615E-3],"split_indices":[2,19,12,21,0,20,0,19,20,0,0,0,0,0,0],"split_type":[0,0,0,0,0,0,0,0,0,0,0,0,0,0,0],"sum_hessian":[1.478628E1,8.790388E0,5.995892E0,7.7812605E0,1.0091274E0,4.9260845E0,1.0698076E0,5.668569E0,2.1126914E0,1.6300018E0,3.2960825E0,1.0005279E0,4.668041E0,1.090057E0,1.0226345E0],"tree_param":{"num_deleted":"0","num_feature":"23","num_nodes":"15","size_leaf_vector":"1"}},{"base_weights":[-6.036959E-2,-2.8571945E-1,2.4090903E-1,-2.9588935E-1,-4.909566E-4,2.934782E-1,-2.3839832E-3,-3.1839833E-1,-2.2591079E-2,-2.7836859E-6,1.647382E-2,-3.3524315E-4,-1.6758054E-2,-5.2771843E-3,4.0646475E-3],"categories":[],"categories_nodes":[],"categories_segments":[],"categories_sizes":[],"default_left":[0,0,0,0,0,0,0,0,0,0,0,0,0,0,0],"id":62,"left_children":[1,3,5,7,-1,9,-1,11,13,-1,-1,-1,-1,-1,-1],"loss_changes":[2.3669562E0,2.3470283E-2,3.827449E-1,3.701961E-2,0E0,1.5801466E-1,0E0,5.903113E-2,1.9016868E-1,0E0,0E0,0E0,0E0,0E0,0E0],"parents":[2147483647,0,0,1,1,2,2,3,3,5,5,7,7,8,8],"right_children":[2,4,6,8,-1,10,-1,12,14,-1,-1,-1,-1,-1,-1],"split_conditions":[1E0,1.03529415E1,2E0,4E0,-4.909566E-4,2.3761157E2,-2.3839832E-3,1.4957507E0,1.487548E2,-2.7836859E-6,1.647382E-2,-3.3524315E-4,-1.6758054E-2,-5.2771843E-3,4.0646475E-3],"split_indices":[2,19,12,21,0,20,0,19,20,0,0,0,0,0,0],"split_type":[0,0,0,0,0,0,0,0,0,0,0,0,0,0,0],"sum_hessian":[1.4724638E1,8.719258E0,6.005379E0,7.7105417E0,1.0087171E0,4.936687E0,1.0686922E0,5.5991774E0,2.1113644E0,1.6299988E0,3.306688E0,1.0002364E0,4.598941E0,1.0851218E0,1.0262426E0],"tree_param":{"num_deleted":"0","num_feature":"23","num_nodes":"15","size_leaf_vector":"1"}},{"base_weights":[-5.942857E-2,-2.860226E-1,2.3402935E-1,2.1624737E-3,-3.360238E-1,-5.8048945E-3,3.3447802E-1,-1.8117616E-2,-2.4729514E-2,2.037315E-2,-1.7415533E-3,-5.347422E-3,4.0151803E-3],"categories":[],"categories_nodes":[],"categories_segments":[],"categories_sizes":[],"default_left":[0,0,0,0,0,0,0,0,0,0,0,0,0],"id":63,"left_children":[1,3,5,-1,7,-1,9,-1,11,-1,-1,-1,-1],"loss_changes":[2.3094397E0,4.485582E-1,9.597051E-1,0E0,5.0787926E-2,0E0,5.516566E-1,0E0,1.901017E-1,0E0,0E0,0E0,0E0],"parents":[2147483647,0,0,1,1,2,2,4,4,6,6,8,8],"right_children":[2,4,6,-1,8,-1,10,-1,12,-1,-1,-1,-1],"split_conditions":[2.3761157E2,1.859E1,1.7325581E0,2.1624737E-3,4.1044774E0,-5.8048945E-3,4.0684934E0,-1.8117616E-2,2.428E1,2.037315E-2,-1.7415533E-3,-5.347422E-3,4.0151803E-3],"split_indices":[20,1,21,0,21,0,21,0,1,0,0,0,0],"split_type":[0,0,0,0,0,0,0,0,0,0,0,0,0],"sum_hessian":[1.4664149E1,8.417744E0,6.2464056E0,1.2877641E0,7.129979E0,1.0452198E0,5.2011857E0,5.0616894E0,2.06829E0,3.4802763E0,1.7209092E0,1.0578564E0,1.0104336E0],"tree_param":{"num_deleted":"0","num_feature":"23","num_nodes":"13","size_leaf_vector":"1"}},{"base_weights":[-5.8448847E-2,-2.8005055E-1,2.3534434E-1,-2.8983703E-1,-5.0359487E-4,2.8755483E-1,-2.3926622E-3,-3.1173626E-1,-2.252918E-2,3.739702E-5,1.6097438E-2,-5.050885E-4,-1.632012E-2,4.0552956E-3,-5.2521653E-3],"categories":[],"categories_nodes":[],"categories_segments":[],"categories_sizes":[],"default_left":[0,0,0,0,0,0,0,0,0,0,0,0,0,0,0],"id":64,"left_children":[1,3,5,7,-1,9,-1,11,13,-1,-1,-1,-1,-1,-1],"loss_changes":[2.2609003E0,1.9928336E-2,3.7436146E-1,3.268373E-2,0E0,1.4503133E-1,0E0,3.546655E-2,1.887554E-1,0E0,0E0,0E0,0E0,0E0,0E0],"parents":[2147483647,0,0,1,1,2,2,3,3,5,5,7,7,8,8],"right_children":[2,4,6,8,-1,10,-1,12,14,-1,-1,-1,-1,-1,-1],"split_conditions":[1E0,1.03529415E1,2E0,4E0,-5.0359487E-4,2.3761157E2,-2.3926622E-3,3.694528E5,4.597826E0,3.739702E-5,1.6097438E-2,-5.050885E-4,-1.632012E-2,4.0552956E-3,-5.2521653E-3],"split_indices":[2,19,12,21,0,20,0,22,21,0,0,0,0,0,0],"split_type":[0,0,0,0,0,0,0,0,0,0,0,0,0,0,0],"sum_hessian":[1.4603568E1,8.591189E0,6.0123787E0,7.5808372E0,1.0103518E0,4.946567E0,1.0658116E0,5.4705896E0,2.1102479E0,1.623752E0,3.3228152E0,1.0367079E0,4.4338818E0,1.011057E0,1.0991908E0],"tree_param":{"num_deleted":"0","num_feature":"23","num_nodes":"15","size_leaf_vector":"1"}},{"base_weights":[-5.763145E-2,-2.7702677E-1,2.3203677E-1,-1.5764918E-2,-4.5673165E-2,2.8690875E-1,-2.690453E-3,1.3104697E-1,-9.303865E-3,1.6779047E-2,-1.6656503E-3,-1.3694438E-3,8.666805E-3],"categories":[],"categories_nodes":[],"categories_segments":[],"categories_sizes":[],"default_left":[0,0,0,0,0,0,0,0,0,0,0,0,0],"id":65,"left_children":[1,3,5,-1,7,9,-1,11,-1,-1,-1,-1,-1],"loss_changes":[2.202722E0,2.0019412E-2,4.056635E-1,0E0,5.992459E-1,3.4588766E-1,0E0,1.2927806E-1,0E0,0E0,0E0,0E0,0E0],"parents":[2147483647,0,0,1,1,2,2,4,4,5,5,7,7],"right_children":[2,4,6,-1,8,10,-1,12,-1,-1,-1,-1,-1],"split_conditions":[1E0,1.5054195E2,2E0,-1.5764918E-2,5.3E1,2.48E1,-2.690453E-3,1E0,-9.303865E-3,1.6779047E-2,-1.6656503E-3,-1.3694438E-3,8.666805E-3],"split_indices":[2,20,18,0,10,1,0,16,0,0,0,0,0],"split_type":[0,0,0,0,0,0,0,0,0,0,0,0,0],"sum_hessian":[1.4545599E1,8.525089E0,6.0205092E0,4.201621E0,4.3234687E0,5.0197206E0,1.0007887E0,2.209242E0,2.1142263E0,3.9410582E0,1.0786626E0,1.2077684E0,1.0014738E0],"tree_param":{"num_deleted":"0","num_feature":"23","num_nodes":"13","size_leaf_vector":"1"}},{"base_weights":[-5.708016E-2,-2.7793443E-1,2.2581775E-1,2.1829035E-3,-3.280033E-1,-5.7502706E-3,3.2446548E-1,-1.7703703E-2,-2.37185E-2,1.988854E-2,-1.837835E-3,-5.297693E-3,4.0172427E-3],"categories":[],"categories_nodes":[],"categories_segments":[],"categories_sizes":[],"default_left":[0,0,0,0,0,0,0,0,0,0,0,0,0],"id":66,"left_children":[1,3,5,-1,7,-1,9,-1,11,-1,-1,-1,-1],"loss_changes":[2.157947E0,4.36859E-1,9.1968924E-1,0E0,5.0525546E-2,0E0,5.493213E-1,0E0,1.8830036E-1,0E0,0E0,0E0,0E0],"parents":[2147483647,0,0,1,1,2,2,4,4,6,6,8,8],"right_children":[2,4,6,-1,8,-1,10,-1,12,-1,-1,-1,-1],"split_conditions":[2.3761157E2,1.859E1,1.7325581E0,2.1829035E-3,4.1044774E0,-5.7502706E-3,4.0684934E0,-1.7703703E-2,2.428E1,1.988854E-2,-1.837835E-3,-5.297693E-3,4.0172427E-3],"split_indices":[20,1,21,0,21,0,21,0,1,0,0,0,0],"split_type":[0,0,0,0,0,0,0,0,0,0,0,0,0],"sum_hessian":[1.4493296E1,8.237698E0,6.2555985E0,1.2822421E0,6.9554553E0,1.0319762E0,5.2236223E0,4.8994074E0,2.0560477E0,3.5012789E0,1.7223433E0,1.046997E0,1.0090508E0],"tree_param":{"num_deleted":"0","num_feature":"23","num_nodes":"13","size_leaf_vector":"1"}},{"base_weights":[-5.6233667E-2,-2.714451E-1,2.2581151E-1,-1.547232E-2,-4.4174396E-2,2.777086E-1,-2.4247319E-3,1.3091229E-1,-9.220862E-3,4.7228428E-7,1.5579571E-2,-1.359109E-3,8.6462265E-3],"categories":[],"categories_nodes":[],"categories_segments":[],"categories_sizes":[],"default_left":[0,0,0,0,0,0,0,0,0,0,0,0,0],"id":67,"left_children":[1,3,5,-1,7,9,-1,11,-1,-1,-1,-1,-1],"loss_changes":[2.0961635E0,2.2225022E-2,3.6293453E-1,0E0,5.925873E-1,1.4082742E-1,0E0,1.2809487E-1,0E0,0E0,0E0,0E0,0E0],"parents":[2147483647,0,0,1,1,2,2,4,4,5,5,7,7],"right_children":[2,4,6,-1,8,10,-1,12,-1,-1,-1,-1,-1],"split_conditions":[1E0,1.5054195E2,2E0,-1.547232E-2,5.3E1,2.3761157E2,-2.4247319E-3,1E0,-9.220862E-3,4.7228428E-7,1.5579571E-2,-1.359109E-3,8.6462265E-3],"split_indices":[2,20,12,0,10,20,0,16,0,0,0,0,0],"split_type":[0,0,0,0,0,0,0,0,0,0,0,0,0],"sum_hessian":[1.4435341E1,8.400932E0,6.0344086E0,4.0996737E0,4.3012586E0,4.970063E0,1.0643454E0,2.2088838E0,2.0923748E0,1.6282145E0,3.3418486E0,1.2048607E0,1.0040231E0],"tree_param":{"num_deleted":"0","num_feature":"23","num_nodes":"13","size_leaf_vector":"1"}},{"base_weights":[-5.5321347E-2,-2.7161914E-1,2.1937917E-1,2.2081772E-3,-3.2183743E-1,-5.7278867E-3,3.1698143E-1,-1.7398713E-2,-2.2512149E-2,1.9490005E-2,-1.8730819E-3,-5.2404054E-3,4.0219342E-3],"categories":[],"categories_nodes":[],"categories_segments":[],"categories_sizes":[],"default_left":[0,0,0,0,0,0,0,0,0,0,0,0,0],"id":68,"left_children":[1,3,5,-1,7,-1,9,-1,11,-1,-1,-1,-1],"loss_changes":[2.0442092E0,4.292544E-1,8.934186E-1,0E0,5.3315878E-2,0E0,5.394974E-1,0E0,1.8634067E-1,0E0,0E0,0E0,0E0],"parents":[2147483647,0,0,1,1,2,2,4,4,6,6,8,8],"right_children":[2,4,6,-1,8,-1,10,-1,12,-1,-1,-1,-1],"split_conditions":[2.3761157E2,1.859E1,1.7325581E0,2.2081772E-3,4.1044774E0,-5.7278867E-3,4.0684934E0,-1.7398713E-2,2.428E1,1.9490005E-2,-1.8730819E-3,-5.2404054E-3,4.0219342E-3],"split_indices":[20,1,21,0,21,0,21,0,1,0,0,0,0],"split_type":[0,0,0,0,0,0,0,0,0,0,0,0,0],"sum_hessian":[1.4375697E1,8.105578E0,6.2701187E0,1.2775812E0,6.827997E0,1.025221E0,5.2448974E0,4.784896E0,2.0431015E0,3.523478E0,1.7214193E0,1.0351931E0,1.0079086E0],"tree_param":{"num_deleted":"0","num_feature":"23","num_nodes":"13","size_leaf_vector":"1"}},{"base_weights":[-5.4570153E-2,-2.6605335E-1,2.2053184E-1,-1.5189039E-2,-4.274779E-2,2.7209786E-1,-2.4328444E-3,1.3074219E-1,-9.14016E-3,3.7830552E-5,1.5224764E-2,-1.3497075E-3,8.624743E-3],"categories":[],"categories_nodes":[],"categories_segments":[],"categories_sizes":[],"default_left":[0,0,0,0,0,0,0,0,0,0,0,0,0],"id":69,"left_children":[1,3,5,-1,7,9,-1,11,-1,-1,-1,-1,-1],"loss_changes":[2.001634E0,2.4160743E-2,3.5501397E-1,0E0,5.859779E-1,1.2934971E-1,0E0,1.2696964E-1,0E0,0E0,0E0,0E0,0E0],"parents":[2147483647,0,0,1,1,2,2,4,4,5,5,7,7],"right_children":[2,4,6,-1,8,10,-1,12,-1,-1,-1,-1,-1],"split_conditions":[1E0,1.5054195E2,2E0,-1.5189039E-2,5.3E1,2.3761157E2,-2.4328444E-3,1E0,-9.14016E-3,3.7830552E-5,1.5224764E-2,-1.3497075E-3,8.624743E-3],"split_indices":[2,20,12,0,10,20,0,16,0,0,0,0,0],"split_type":[0,0,0,0,0,0,0,0,0,0,0,0,0],"sum_hessian":[1.43196125E1,8.28188E0,6.0377316E0,4.0019383E0,4.2799425E0,4.9763823E0,1.0613494E0,2.2088075E0,2.0711353E0,1.6223232E0,3.354059E0,1.2021147E0,1.0066926E0],"tree_param":{"num_deleted":"0","num_feature":"23","num_nodes":"13","size_leaf_vector":"1"}},{"base_weights":[-5.3730134E-2,-2.630289E-1,2.1741828E-1,-2.732248E-1,-4.0319352E-4,2.6855072E-1,-2.4214184E-3,-3.06754E-1,4.1732314E-5,3.756676E-5,1.502527E-2,-4.4536457E-4,-1.6092604E-2],"categories":[],"categories_nodes":[],"categories_segments":[],"categories_sizes":[],"default_left":[0,0,0,0,0,0,0,0,0,0,0,0,0],"id":70,"left_children":[1,3,5,7,-1,9,-1,11,-1,-1,-1,-1,-1],"loss_changes":[1.9487487E0,2.532661E-2,3.481453E-1,1.6073215E-1,0E0,1.2596357E-1,0E0,4.042232E-2,0E0,0E0,0E0,0E0,0E0],"parents":[2147483647,0,0,1,1,2,2,3,3,5,5,7,7],"right_children":[2,4,6,8,-1,10,-1,12,-1,-1,-1,-1,-1],"split_conditions":[1E0,4E1,2E0,2.621E1,-4.0319352E-4,2.3761157E2,-2.4214184E-3,3.857903E5,4.1732314E-5,3.756676E-5,1.502527E-2,-4.4536457E-4,-1.6092604E-2],"split_indices":[2,11,12,1,0,20,0,22,0,0,0,0,0],"split_type":[0,0,0,0,0,0,0,0,0,0,0,0,0],"sum_hessian":[1.4261688E1,8.217822E0,6.043866E0,7.2132015E0,1.0046207E0,4.9836116E0,1.0602547E0,5.363985E0,1.8492168E0,1.6223619E0,3.3612497E0,1.0258678E0,4.338117E0],"tree_param":{"num_deleted":"0","num_feature":"23","num_nodes":"13","size_leaf_vector":"1"}},{"base_weights":[-5.2943695E-2,1.34109855E-2,-2.2270691E-1,-3.5407266E-1,1.05486356E-1,-7.598285E-4,-1.9197373E-2,2.1534097E-1,-5.7241363E-3,-2.2023034E-3,1.4299144E-2],"categories":[],"categories_nodes":[],"categories_segments":[],"categories_sizes":[],"default_left":[0,0,0,0,0,0,0,0,0,0,0],"id":71,"left_children":[1,-1,3,5,7,-1,-1,9,-1,-1,-1],"loss_changes":[1.9170716E0,0E0,1.2917597E0,1.1887956E-1,5.7982856E-1,0E0,0E0,3.581227E-1,0E0,0E0,0E0],"parents":[2147483647,0,0,2,2,3,3,4,4,7,7],"right_children":[2,-1,4,6,8,-1,-1,10,-1,-1,-1],"split_conditions":[1.859E1,1.34109855E-2,2.5E1,1.6E1,2.626E1,-7.598285E-4,-1.9197373E-2,2.3692308E2,-5.7241363E-3,-2.2023034E-3,1.4299144E-2],"split_indices":[1,0,11,10,1,0,0,20,0,0,0],"split_type":[0,0,0,0,0,0,0,0,0,0,0],"sum_hessian":[1.4205539E1,2.9067743E0,1.1298764E1,7.5058575E0,3.792907E0,1.8303658E0,5.675492E0,2.6699214E0,1.1229855E0,1.3773537E0,1.2925678E0],"tree_param":{"num_deleted":"0","num_feature":"23","num_nodes":"11","size_leaf_vector":"1"}},{"base_weights":[-5.0528403E-2,-2.610158E-1,2.1205774E-1,2.2021309E-3,-3.1098503E-1,-5.641278E-3,3.074365E-1,-1.9197805E-2,-1.6958194E-2,1.8984722E-2,-1.9232037E-3,-5.146864E-3,4.119801E-3],"categories":[],"categories_nodes":[],"categories_segments":[],"categories_sizes":[],"default_left":[0,0,0,0,0,0,0,0,0,0,0,0,0],"id":72,"left_children":[1,3,5,-1,7,-1,9,11,-1,-1,-1,-1,-1],"loss_changes":[1.8881061E0,4.0960264E-1,8.5074854E-1,0E0,7.144785E-2,0E0,5.273371E-1,1.8743847E-1,0E0,0E0,0E0,0E0,0E0],"parents":[2147483647,0,0,1,1,2,2,4,4,6,6,7,7],"right_children":[2,4,6,-1,8,-1,10,12,-1,-1,-1,-1,-1],"split_conditions":[2.3761157E2,1.859E1,1.7325581E0,2.2021309E-3,1.6E1,-5.641278E-3,4.0684934E0,2.307E1,-1.6958194E-2,1.8984722E-2,-1.9232037E-3,-5.146864E-3,4.119801E-3],"split_indices":[20,1,21,0,10,0,21,1,0,0,0,0,0],"split_type":[0,0,0,0,0,0,0,0,0,0,0,0,0],"sum_hessian":[1.4146482E1,7.8853993E0,6.261083E0,1.2767835E0,6.608616E0,1.0058165E0,5.2552667E0,2.0626874E0,4.5459285E0,3.538996E0,1.7162708E0,1.058211E0,1.0044763E0],"tree_param":{"num_deleted":"0","num_feature":"23","num_nodes":"13","size_leaf_vector":"1"}},{"base_weights":[-4.9946398E-2,-2.559121E-1,2.1325618E-1,-1.4792223E-2,-3.6644038E-2,1.3262719E-2,-2.3102053E-3,1.3217512E-1,-8.879097E-3,-1.3065115E-3,8.654174E-3],"categories":[],"categories_nodes":[],"categories_segments":[],"categories_sizes":[],"default_left":[0,0,0,0,0,0,0,0,0,0,0],"id":73,"left_children":[1,3,5,-1,7,-1,-1,9,-1,-1,-1],"loss_changes":[1.8519679E0,4.974675E-2,3.3885956E-1,0E0,5.7249635E-1,0E0,0E0,1.241844E-1,0E0,0E0,0E0],"parents":[2147483647,0,0,1,1,2,2,4,4,7,7],"right_children":[2,4,6,-1,8,-1,-1,10,-1,-1,-1],"split_conditions":[1E0,1.5054195E2,2.48E1,-1.4792223E-2,5.3E1,1.3262719E-2,-2.3102053E-3,1E0,-8.879097E-3,-1.3065115E-3,8.654174E-3],"split_indices":[2,20,1,0,10,0,0,16,0,0,0],"split_type":[0,0,0,0,0,0,0,0,0,0,0],"sum_hessian":[1.4095238E1,8.062796E0,6.0324426E0,3.8663101E0,4.196485E0,4.8392916E0,1.1931511E0,2.1922712E0,2.0042138E0,1.1920042E0,1.000267E0],"tree_param":{"num_deleted":"0","num_feature":"23","num_nodes":"11","size_leaf_vector":"1"}},{"base_weights":[-4.979775E-2,1.3047965E-2,-2.1629852E-1,-3.478051E-1,1.0658806E-1,-7.4430293E-4,-1.8860316E-2,2.1509501E-1,-5.651004E-3,-2.0898732E-3,1.4140173E-2],"categories":[],"categories_nodes":[],"categories_segments":[],"categories_sizes":[],"default_left":[0,0,0,0,0,0,0,0,0,0,0],"id":74,"left_children":[1,-1,3,5,7,-1,-1,9,-1,-1,-1],"loss_changes":[1.8087798E0,0E0,1.2678055E0,1.13755226E-1,5.711942E-1,0E0,0E0,3.384086E-1,0E0,0E0,0E0],"parents":[2147483647,0,0,2,2,3,3,4,4,7,7],"right_children":[2,-1,4,6,8,-1,-1,10,-1,-1,-1],"split_conditions":[1.859E1,1.3047965E-2,2.5E1,1.6E1,2.626E1,-7.4430293E-4,-1.8860316E-2,2.3692308E2,-5.651004E-3,-2.0898732E-3,1.4140173E-2],"split_indices":[1,0,11,10,1,0,0,20,0,0,0],"split_type":[0,0,0,0,0,0,0,0,0,0,0],"sum_hessian":[1.4049047E1,2.9220936E0,1.1126954E1,7.3582935E0,3.76866E0,1.819425E0,5.538869E0,2.6599193E0,1.1087409E0,1.3530726E0,1.3068466E0],"tree_param":{"num_deleted":"0","num_feature":"23","num_nodes":"11","size_leaf_vector":"1"}},{"base_weights":[-4.7519933E-2,-2.5389385E-1,2.0683084E-1,2.118034E-3,-3.028537E-1,-3.621956E-3,2.8012827E-1,-1.655448E-2,-7.858495E-4,1.7529136E-2,-1.9287954E-3],"categories":[],"categories_nodes":[],"categories_segments":[],"categories_sizes":[],"default_left":[0,0,0,0,0,0,0,0,0,0,0],"id":75,"left_children":[1,3,5,-1,7,-1,9,-1,-1,-1,-1],"loss_changes":[1.7845318E0,3.8552582E-1,5.357158E-1,0E0,8.130443E-2,0E0,4.7053647E-1,0E0,0E0,0E0,0E0],"parents":[2147483647,0,0,1,1,2,2,4,4,6,6],"right_children":[2,4,6,-1,8,-1,10,-1,-1,-1,-1],"split_conditions":[2.3761157E2,1.859E1,2.091954E0,2.118034E-3,4.1044774E0,-3.621956E-3,4.0684934E0,-1.655448E-2,-7.858495E-4,1.7529136E-2,-1.9287954E-3],"split_indices":[20,1,21,0,21,0,21,0,0,0,0],"split_type":[0,0,0,0,0,0,0,0,0,0,0],"sum_hessian":[1.3992537E1,7.734731E0,6.2578053E0,1.2881362E0,6.4465947E0,1.3253181E0,4.932487E0,4.4757376E0,1.9708574E0,3.2203288E0,1.7121582E0],"tree_param":{"num_deleted":"0","num_feature":"23","num_nodes":"11","size_leaf_vector":"1"}},{"base_weights":[-4.662629E-2,-2.4880911E-1,2.0832254E-1,-1.4475301E-2,-3.34121E-2,2.5864667E-1,-2.4234992E-3,1.3242403E-1,-8.720792E-3,1.03966835E-4,1.4398555E-2,-1.2847389E-3,8.641589E-3],"categories":[],"categories_nodes":[],"categories_segments":[],"categories_sizes":[],"default_left":[0,0,0,0,0,0,0,0,0,0,0,0,0],"id":76,"left_children":[1,3,5,-1,7,9,-1,11,-1,-1,-1,-1,-1],"loss_changes":[1.7523413E0,6.0258508E-2,3.3253407E-1,0E0,5.618603E-1,1.06735945E-1,0E0,1.22274116E-1,0E0,0E0,0E0,0E0,0E0],"parents":[2147483647,0,0,1,1,2,2,4,4,5,5,7,7],"right_children":[2,4,6,-1,8,10,-1,12,-1,-1,-1,-1,-1],"split_conditions":[1E0,1.5054195E2,2E0,-1.4475301E-2,5.3E1,2.3761157E2,-2.4234992E-3,1E0,-8.720792E-3,1.03966835E-4,1.4398555E-2,-1.2847389E-3,8.641589E-3],"split_indices":[2,20,12,0,10,20,0,16,0,0,0,0,0],"split_type":[0,0,0,0,0,0,0,0,0,0,0,0,0],"sum_hessian":[1.393996E1,7.908823E0,6.031136E0,3.7581794E0,4.150644E0,4.9825015E0,1.0486344E0,2.1869822E0,1.9636614E0,1.6095146E0,3.3729868E0,1.1862433E0,1.000739E0],"tree_param":{"num_deleted":"0","num_feature":"23","num_nodes":"13","size_leaf_vector":"1"}},{"base_weights":[-4.5987435E-2,1.2758604E-2,-2.0988612E-1,-3.4139574E-1,1.0748617E-1,-6.733378E-4,-1.8544117E-2,2.145566E-1,-5.575108E-3,-1.9748842E-3,1.3962859E-2],"categories":[],"categories_nodes":[],"categories_segments":[],"categories_sizes":[],"default_left":[0,0,0,0,0,0,0,0,0,0,0],"id":77,"left_children":[1,-1,3,5,7,-1,-1,9,-1,-1,-1],"loss_changes":[1.7146311E0,0E0,1.2415864E0,1.1647344E-1,5.6151325E-1,0E0,0E0,3.1825107E-1,0E0,0E0,0E0],"parents":[2147483647,0,0,2,2,3,3,4,4,7,7],"right_children":[2,-1,4,6,8,-1,-1,10,-1,-1,-1],"split_conditions":[1.859E1,1.2758604E-2,2.5E1,1.6E1,2.626E1,-6.733378E-4,-1.8544117E-2,2.3692308E2,-5.575108E-3,-1.9748842E-3,1.3962859E-2],"split_indices":[1,0,11,10,1,0,0,20,0,0,0],"split_type":[0,0,0,0,0,0,0,0,0,0,0],"sum_hessian":[1.3887131E1,2.9315653E0,1.0955565E1,7.210713E0,3.7448525E0,1.7966567E0,5.4140563E0,2.6510444E0,1.0938083E0,1.3287731E0,1.3222712E0],"tree_param":{"num_deleted":"0","num_feature":"23","num_nodes":"11","size_leaf_vector":"1"}},{"base_weights":[-4.3839805E-2,-2.4403311E-1,2.059776E-1,-1.4273449E-2,-3.0992985E-2,2.554883E-1,-2.3851928E-3,1.3219185E-1,-8.5863015E-3,1.245336E-4,1.4199804E-2,-1.2665018E-3,8.606331E-3],"categories":[],"categories_nodes":[],"categories_segments":[],"categories_sizes":[],"default_left":[0,0,0,0,0,0,0,0,0,0,0,0,0],"id":78,"left_children":[1,3,5,-1,7,9,-1,11,-1,-1,-1,-1,-1],"loss_changes":[1.694587E0,6.8722606E-2,3.231545E-1,0E0,5.5122375E-1,1.0098112E-1,0E0,1.20267704E-1,0E0,0E0,0E0,0E0,0E0],"parents":[2147483647,0,0,1,1,2,2,4,4,5,5,7,7],"right_children":[2,4,6,-1,8,10,-1,12,-1,-1,-1,-1,-1],"split_conditions":[1E0,1.5054195E2,2E0,-1.4273449E-2,5.3E1,2.3761157E2,-2.3851928E-3,1E0,-8.5863015E-3,1.245336E-4,1.4199804E-2,-1.2665018E-3,8.606331E-3],"split_indices":[2,20,12,0,10,20,0,16,0,0,0,0,0],"split_type":[0,0,0,0,0,0,0,0,0,0,0,0,0],"sum_hessian":[1.3833055E1,7.8077717E0,6.0252833E0,3.690251E0,4.117521E0,4.9817715E0,1.0435114E0,2.187706E0,1.9298148E0,1.6056651E0,3.3761065E0,1.1820965E0,1.0056094E0],"tree_param":{"num_deleted":"0","num_feature":"23","num_nodes":"13","size_leaf_vector":"1"}},{"base_weights":[-4.3262873E-2,1.2575275E-2,-2.0544972E-1,-3.3644718E-1,1.0733946E-1,-6.463639E-4,-1.8287634E-2,2.1347296E-1,-5.5302307E-3,-1.9166507E-3,1.3827494E-2],"categories":[],"categories_nodes":[],"categories_segments":[],"categories_sizes":[],"default_left":[0,0,0,0,0,0,0,0,0,0,0],"id":79,"left_children":[1,-1,3,5,7,-1,-1,9,-1,-1,-1],"loss_changes":[1.6536648E0,0E0,1.2152499E0,1.14941835E-1,5.5380106E-1,0E0,0E0,3.0692065E-1,0E0,0E0,0E0],"parents":[2147483647,0,0,2,2,3,3,4,4,7,7],"right_children":[2,-1,4,6,8,-1,-1,10,-1,-1,-1],"split_conditions":[1.859E1,1.2575275E-2,2.5E1,1.6E1,2.626E1,-6.463639E-4,-1.8287634E-2,2.3692308E2,-5.5302307E-3,-1.9166507E-3,1.3827494E-2],"split_indices":[1,0,11,10,1,0,0,20,0,0,0],"split_type":[0,0,0,0,0,0,0,0,0,0,0],"sum_hessian":[1.3781758E1,2.9369037E0,1.0844854E1,7.1105638E0,3.7342908E0,1.7875886E0,5.322975E0,2.649297E0,1.0849938E0,1.3165169E0,1.3327802E0],"tree_param":{"num_deleted":"0","num_feature":"23","num_nodes":"11","size_leaf_vector":"1"}},{"base_weights":[-4.1213304E-2,-2.3941232E-1,2.0364529E-1,-1.4077363E-2,-2.869042E-2,1.2702453E-2,-2.2689688E-3,1.3192934E-1,-8.456488E-3,-1.2490455E-3,8.570313E-3],"categories":[],"categories_nodes":[],"categories_segments":[],"categories_sizes":[],"default_left":[0,0,0,0,0,0,0,0,0,0,0],"id":80,"left_children":[1,3,5,-1,7,-1,-1,9,-1,-1,-1],"loss_changes":[1.6391559E0,7.647061E-2,3.163507E-1,0E0,5.4087114E-1,0E0,0E0,1.1831947E-1,0E0,0E0,0E0],"parents":[2147483647,0,0,1,1,2,2,4,4,7,7],"right_children":[2,4,6,-1,8,-1,-1,10,-1,-1,-1],"split_conditions":[1E0,1.5054195E2,2.48E1,-1.4077363E-2,5.3E1,1.2702453E-2,-2.2689688E-3,1E0,-8.456488E-3,-1.2490455E-3,8.570313E-3],"split_indices":[2,20,1,0,10,0,0,16,0,0,0],"split_type":[0,0,0,0,0,0,0,0,0,0,0],"sum_hessian":[1.3729377E1,7.7105517E0,6.0188246E0,3.6246934E0,4.0858583E0,4.837856E0,1.1809685E0,2.1886573E0,1.8972011E0,1.1780891E0,1.0105683E0],"tree_param":{"num_deleted":"0","num_feature":"23","num_nodes":"11","size_leaf_vector":"1"}},{"base_weights":[-4.1259464E-2,-2.4032673E-1,1.9816157E-1,2.026932E-3,-2.880015E-1,-3.568723E-3,2.6939514E-1,-1.58893E-2,-5.376627E-4,1.6981827E-2,-2.0065017E-3],"categories":[],"categories_nodes":[],"categories_segments":[],"categories_sizes":[],"default_left":[0,0,0,0,0,0,0,0,0,0,0],"id":81,"left_children":[1,3,5,-1,7,-1,9,-1,-1,-1,-1],"loss_changes":[1.6052313E0,3.5045433E-1,5.0398886E-1,0E0,9.9226594E-2,0E0,4.6101987E-1,0E0,0E0,0E0,0E0],"parents":[2147483647,0,0,1,1,2,2,4,4,6,6],"right_children":[2,4,6,-1,8,-1,10,-1,-1,-1,-1],"split_conditions":[2.3761157E2,1.859E1,2.091954E0,2.026932E-3,4.1044774E0,-3.568723E-3,4.0684934E0,-1.58893E-2,-5.376627E-4,1.6981827E-2,-2.0065017E-3],"split_indices":[20,1,21,0,21,0,21,0,0,0,0],"split_type":[0,0,0,0,0,0,0,0,0,0,0],"sum_hessian":[1.3688103E1,7.4532495E0,6.2348533E0,1.2987552E0,6.1544943E0,1.2991828E0,4.9356704E0,4.2371535E0,1.9173406E0,3.2298803E0,1.70579E0],"tree_param":{"num_deleted":"0","num_feature":"23","num_nodes":"11","size_leaf_vector":"1"}},{"base_weights":[-4.056767E-2,1.2260363E-2,-1.9978842E-1,-3.308313E-1,1.081913E-1,-5.894543E-4,-1.800764E-2,2.1295246E-1,-5.457863E-3,-1.8179637E-3,1.3672746E-2],"categories":[],"categories_nodes":[],"categories_segments":[],"categories_sizes":[],"default_left":[0,0,0,0,0,0,0,0,0,0,0],"id":82,"left_children":[1,-1,3,5,7,-1,-1,9,-1,-1,-1],"loss_changes":[1.565543E0,0E0,1.1930225E0,1.1638498E-1,5.4466856E-1,0E0,0E0,2.9010475E-1,0E0,0E0,0E0],"parents":[2147483647,0,0,2,2,3,3,4,4,7,7],"right_children":[2,-1,4,6,8,-1,-1,10,-1,-1,-1],"split_conditions":[1.859E1,1.2260363E-2,2.5E1,1.6E1,2.626E1,-5.894543E-4,-1.800764E-2,2.3692308E2,-5.457863E-3,-1.8179637E-3,1.3672746E-2],"split_indices":[1,0,11,10,1,0,0,20,0,0,0],"split_type":[0,0,0,0,0,0,0,0,0,0,0],"sum_hessian":[1.3639925E1,2.9481046E0,1.069182E1,6.979933E0,3.7118874E0,1.7676014E0,5.212332E0,2.6411319E0,1.0707555E0,1.2950557E0,1.3460763E0],"tree_param":{"num_deleted":"0","num_feature":"23","num_nodes":"11","size_leaf_vector":"1"}},{"base_weights":[-3.862654E-2,-2.3304318E-1,1.9885583E-1,-1.379042E-2,-2.5938448E-2,2.4749507E-1,-2.370294E-3,1.3199593E-1,-8.3155995E-3,1.2806345E-4,1.374556E-2,-1.2320754E-3,8.55308E-3],"categories":[],"categories_nodes":[],"categories_segments":[],"categories_sizes":[],"default_left":[0,0,0,0,0,0,0,0,0,0,0,0,0],"id":83,"left_children":[1,3,5,-1,7,9,-1,11,-1,-1,-1,-1,-1],"loss_changes":[1.5525638E0,8.4120154E-2,3.0914843E-1,0E0,5.309234E-1,9.355587E-2,0E0,1.167126E-1,0E0,0E0,0E0,0E0,0E0],"parents":[2147483647,0,0,1,1,2,2,4,4,5,5,7,7],"right_children":[2,4,6,-1,8,10,-1,12,-1,-1,-1,-1,-1],"split_conditions":[1E0,1.5054195E2,2E0,-1.379042E-2,5.3E1,2.3761157E2,-2.370294E-3,1E0,-8.3155995E-3,1.2806345E-4,1.374556E-2,-1.2320754E-3,8.55308E-3],"split_indices":[2,20,12,0,10,20,0,16,0,0,0,0,0],"split_type":[0,0,0,0,0,0,0,0,0,0,0,0,0],"sum_hessian":[1.3589591E1,7.575105E0,6.014486E0,3.5290492E0,4.046056E0,4.980669E0,1.0338168E0,2.184774E0,1.861282E0,1.6020733E0,3.3785958E0,1.1731617E0,1.0116122E0],"tree_param":{"num_deleted":"0","num_feature":"23","num_nodes":"13","size_leaf_vector":"1"}},{"base_weights":[-3.8181555E-2,-2.0142086E-1,2.3424162E-1,-3.1135577E-1,9.1240585E-2,1.5479405E-2,-3.0201084E-3,4.5482E-3,-2.0204518E-2,-4.5950687E-3,1.0133221E-2],"categories":[],"categories_nodes":[],"categories_segments":[],"categories_sizes":[],"default_left":[0,0,0,0,0,0,0,0,0,0,0],"id":84,"left_children":[1,3,5,7,9,-1,-1,-1,-1,-1,-1],"loss_changes":[1.5187137E0,9.3069303E-1,4.8546422E-1,9.9719715E-1,4.5605654E-1,0E0,0E0,0E0,0E0,0E0,0E0],"parents":[2147483647,0,0,1,1,2,2,3,3,4,4],"right_children":[2,4,6,8,10,-1,-1,-1,-1,-1,-1],"split_conditions":[3.9537036E2,4E0,3.6179776E0,1.838E1,3E1,1.5479405E-2,-3.0201084E-3,4.5482E-3,-2.0204518E-2,-4.5950687E-3,1.0133221E-2],"split_indices":[20,21,21,1,11,0,0,0,0,0,0],"split_type":[0,0,0,0,0,0,0,0,0,0,0],"sum_hessian":[1.3541672E1,1.0097469E1,3.444203E0,6.8758607E0,3.221608E0,2.3388987E0,1.1053042E0,1.3237648E0,5.552096E0,1.8813744E0,1.3402336E0],"tree_param":{"num_deleted":"0","num_feature":"23","num_nodes":"11","size_leaf_vector":"1"}},{"base_weights":[-3.5440553E-2,-2.2742821E-1,1.9616161E-1,-1.35491295E-2,-2.3275547E-2,2.4375767E-1,-2.3178454E-3,1.3257982E-1,-8.200203E-3,1.6333685E-4,1.3500044E-2,-1.1931742E-3,8.5395975E-3],"categories":[],"categories_nodes":[],"categories_segments":[],"categories_sizes":[],"default_left":[0,0,0,0,0,0,0,0,0,0,0,0,0],"id":85,"left_children":[1,3,5,-1,7,9,-1,11,-1,-1,-1,-1,-1],"loss_changes":[1.4893962E0,9.217256E-2,2.9772395E-1,0E0,5.2471167E-1,8.5695446E-2,0E0,1.1355303E-1,0E0,0E0,0E0,0E0,0E0],"parents":[2147483647,0,0,1,1,2,2,4,4,5,5,7,7],"right_children":[2,4,6,-1,8,10,-1,12,-1,-1,-1,-1,-1],"split_conditions":[1E0,1.5054195E2,2E0,-1.35491295E-2,5.3E1,2.3761157E2,-2.3178454E-3,1E0,-8.200203E-3,1.6333685E-4,1.3500044E-2,-1.1931742E-3,8.5395975E-3],"split_indices":[2,20,12,0,10,20,0,16,0,0,0,0,0],"split_type":[0,0,0,0,0,0,0,0,0,0,0,0,0],"sum_hessian":[1.3462833E1,7.4594827E0,6.0033507E0,3.449938E0,4.009545E0,4.975732E0,1.027619E0,2.1772735E0,1.8322711E0,1.5958917E0,3.3798401E0,1.1645442E0,1.0127293E0],"tree_param":{"num_deleted":"0","num_feature":"23","num_nodes":"13","size_leaf_vector":"1"}},{"base_weights":[-3.505756E-2,1.1967267E-2,-1.9149235E-1,-3.2269123E-1,1.0978121E-1,-4.885869E-4,-1.7612912E-2,2.1246156E-1,-5.344934E-3,-1.6814638E-3,1.3474767E-2],"categories":[],"categories_nodes":[],"categories_segments":[],"categories_sizes":[],"default_left":[0,0,0,0,0,0,0,0,0,0,0],"id":86,"left_children":[1,-1,3,5,7,-1,-1,9,-1,-1,-1],"loss_changes":[1.4635092E0,0E0,1.1633456E0,1.20996E-1,5.312892E-1,0E0,0E0,2.6779974E-1,0E0,0E0,0E0],"parents":[2147483647,0,0,2,2,3,3,4,4,7,7],"right_children":[2,-1,4,6,8,-1,-1,10,-1,-1,-1],"split_conditions":[1.859E1,1.1967267E-2,2.5E1,1.6E1,2.626E1,-4.885869E-4,-1.7612912E-2,2.3692308E2,-5.344934E-3,-1.6814638E-3,1.3474767E-2],"split_indices":[1,0,11,10,1,0,0,20,0,0,0],"split_type":[0,0,0,0,0,0,0,0,0,0,0],"sum_hessian":[1.3416518E1,2.9470608E0,1.0469457E1,6.7981067E0,3.6713505E0,1.7355052E0,5.0626016E0,2.6230288E0,1.0483218E0,1.2656394E0,1.3573892E0],"tree_param":{"num_deleted":"0","num_feature":"23","num_nodes":"11","size_leaf_vector":"1"}},{"base_weights":[-3.3266645E-2,-2.2327346E-1,1.9391808E-1,-1.3372018E-2,-2.127986E-2,1.2132022E-2,-2.2219436E-3,1.3223013E-1,-8.082513E-3,-1.1781877E-3,8.50166E-3],"categories":[],"categories_nodes":[],"categories_segments":[],"categories_sizes":[],"default_left":[0,0,0,0,0,0,0,0,0,0,0],"id":87,"left_children":[1,3,5,-1,7,-1,-1,9,-1,-1,-1],"loss_changes":[1.4417269E0,9.808922E-2,2.9358208E-1,0E0,5.150327E-1,0E0,0E0,1.1179343E-1,0E0,0E0,0E0],"parents":[2147483647,0,0,1,1,2,2,4,4,7,7],"right_children":[2,4,6,-1,8,-1,-1,10,-1,-1,-1],"split_conditions":[1E0,1.5054195E2,2.48E1,-1.3372018E-2,5.3E1,1.2132022E-2,-2.2219436E-3,1E0,-8.082513E-3,-1.1781877E-3,8.50166E-3],"split_indices":[2,20,1,0,10,0,0,16,0,0,0],"split_type":[0,0,0,0,0,0,0,0,0,0,0],"sum_hessian":[1.3368956E1,7.373915E0,5.99504E0,3.3921618E0,3.981753E0,4.828368E0,1.1666722E0,2.1788554E0,1.8028977E0,1.1609721E0,1.0178834E0],"tree_param":{"num_deleted":"0","num_feature":"23","num_nodes":"11","size_leaf_vector":"1"}},{"base_weights":[-3.3480726E-2,-1.9333977E-1,2.2803305E-1,-3.0305803E-1,9.185231E-2,1.51564E-2,-3.0408E-3,4.445068E-3,-1.973739E-2,-4.490582E-3,1.0036599E-2],"categories":[],"categories_nodes":[],"categories_segments":[],"categories_sizes":[],"default_left":[0,0,0,0,0,0,0,0,0,0,0],"id":88,"left_children":[1,3,5,7,9,-1,-1,-1,-1,-1,-1],"loss_changes":[1.4162841E0,9.0080523E-1,4.7587842E-1,9.508015E-1,4.413848E-1,0E0,0E0,0E0,0E0,0E0,0E0],"parents":[2147483647,0,0,1,1,2,2,3,3,4,4],"right_children":[2,4,6,8,10,-1,-1,-1,-1,-1,-1],"split_conditions":[3.9537036E2,4E0,3.6179776E0,1.838E1,3E1,1.51564E-2,-3.0408E-3,4.445068E-3,-1.973739E-2,-4.490582E-3,1.0036599E-2],"split_indices":[20,21,21,1,11,0,0,0,0,0,0],"split_type":[0,0,0,0,0,0,0,0,0,0,0],"sum_hessian":[1.3332079E1,9.892101E0,3.4399781E0,6.691365E0,3.200736E0,2.337845E0,1.1021329E0,1.3261966E0,5.365168E0,1.8557473E0,1.3449888E0],"tree_param":{"num_deleted":"0","num_feature":"23","num_nodes":"11","size_leaf_vector":"1"}},{"base_weights":[-3.0931296E-2,-2.2103842E-1,1.88574E-1,1.8859869E-3,-2.6661554E-1,-3.5041322E-3,2.5756702E-1,-2.4371182E-4,-1.4950308E-2,1.6363049E-2,-2.0722204E-3],"categories":[],"categories_nodes":[],"categories_segments":[],"categories_sizes":[],"default_left":[0,0,0,0,0,0,0,0,0,0,0],"id":89,"left_children":[1,3,5,-1,7,-1,9,-1,-1,-1,-1],"loss_changes":[1.3873359E0,3.01845E-1,4.6943432E-1,0E0,1.1895728E-1,0E0,4.4655532E-1,0E0,0E0,0E0,0E0],"parents":[2147483647,0,0,1,1,2,2,4,4,6,6],"right_children":[2,4,6,-1,8,-1,10,-1,-1,-1,-1],"split_conditions":[2.3761157E2,1.859E1,2.091954E0,1.8859869E-3,1.6E1,-3.5041322E-3,4.0684934E0,-2.4371182E-4,-1.4950308E-2,1.6363049E-2,-2.0722204E-3],"split_indices":[20,1,21,0,10,0,21,0,0,0,0],"split_type":[0,0,0,0,0,0,0,0,0,0,0],"sum_hessian":[1.3257275E1,7.0669513E0,6.190324E0,1.3165253E0,5.750426E0,1.2702377E0,4.9200864E0,1.9001961E0,3.8502295E0,3.2238927E0,1.6961935E0],"tree_param":{"num_deleted":"0","num_feature":"23","num_nodes":"11","size_leaf_vector":"1"}},{"base_weights":[-3.0542322E-2,-2.1653001E-1,1.8913485E-1,-1.3072527E-2,-1.835182E-2,2.3569582E-1,-2.2894093E-3,1.3275869E-1,-7.950827E-3,1.9395219E-4,1.3015508E-2,-1.1500845E-3,8.497334E-3],"categories":[],"categories_nodes":[],"categories_segments":[],"categories_sizes":[],"default_left":[0,0,0,0,0,0,0,0,0,0,0,0,0],"id":90,"left_children":[1,3,5,-1,7,9,-1,11,-1,-1,-1,-1,-1],"loss_changes":[1.358111E0,1.0544801E-1,2.827363E-1,0E0,5.0740755E-1,7.529336E-2,0E0,1.0958567E-1,0E0,0E0,0E0,0E0,0E0],"parents":[2147483647,0,0,1,1,2,2,4,4,5,5,7,7],"right_children":[2,4,6,-1,8,10,-1,12,-1,-1,-1,-1,-1],"split_conditions":[1E0,1.5054195E2,2E0,-1.3072527E-2,5.3E1,2.3761157E2,-2.2894093E-3,1E0,-7.950827E-3,1.9395219E-4,1.3015508E-2,-1.1500845E-3,8.497334E-3],"split_indices":[2,20,12,0,10,20,0,16,0,0,0,0,0],"split_type":[0,0,0,0,0,0,0,0,0,0,0,0,0],"sum_hessian":[1.3216865E1,7.2348275E0,5.9820375E0,3.2952113E0,3.939616E0,4.96508E0,1.0169578E0,2.1702492E0,1.7693669E0,1.5877388E0,3.377341E0,1.1535211E0,1.016728E0],"tree_param":{"num_deleted":"0","num_feature":"23","num_nodes":"13","size_leaf_vector":"1"}},{"base_weights":[-3.0273777E-2,1.1554467E-2,-1.8265851E-1,-3.144052E-1,1.11959435E-1,-4.175867E-4,-1.71922E-2,2.123081E-1,-5.2161315E-3,-1.5141352E-3,1.3258475E-2],"categories":[],"categories_nodes":[],"categories_segments":[],"categories_sizes":[],"default_left":[0,0,0,0,0,0,0,0,0,0,0],"id":91,"left_children":[1,-1,3,5,7,-1,-1,9,-1,-1,-1],"loss_changes":[1.3450575E0,0E0,1.1369982E0,1.2085259E-1,5.171602E-1,0E0,0E0,2.4188524E-1,0E0,0E0,0E0],"parents":[2147483647,0,0,2,2,3,3,4,4,7,7],"right_children":[2,-1,4,6,8,-1,-1,10,-1,-1,-1],"split_conditions":[1.859E1,1.1554467E-2,2.5E1,1.6E1,2.626E1,-4.175867E-4,-1.71922E-2,2.3692308E2,-5.2161315E-3,-1.5141352E-3,1.3258475E-2],"split_indices":[1,0,11,10,1,0,0,20,0,0,0],"split_type":[0,0,0,0,0,0,0,0,0,0,0],"sum_hessian":[1.3173621E1,2.9496539E0,